// The contents of this file are licensed under the Creative Commons
// Attribution 4.0 International License: https://creativecommons.org/licenses/by/4.0/
// Neural Network File Format by Kyle Julian, Stanford 2016
3,5,50,50,
5,50,50,50,
0,
0.0,-3.141593,-3.141593,100.0,0.0,
60760.0,3.141593,3.141593,1200.0,1200.0,
1.9791091e+04,0.0,0.0,650.0,600.0,7.5188840201005975,
60261.0,6.28318530718,6.28318530718,1100.0,1200.0,373.94992,
1.88976e+00,2.38041e-03,-1.97384e-04,-5.07401e-03,1.90423e-03,
-1.03009e-02,-2.78372e-02,4.11775e-03,4.95105e-01,-5.20682e-01,
6.30226e-02,-8.64847e-01,-6.89373e-01,4.96987e-01,-2.19611e-01,
-9.99090e-02,-9.49165e-01,-1.16955e+00,1.88703e-01,-1.10513e-01,
1.26566e-02,9.09258e-01,9.54622e-01,5.67830e-01,5.55926e-02,
-3.02796e-02,-1.55105e+00,1.41780e+00,-4.69430e-02,3.31603e-01,
4.84936e-01,1.26024e+00,-7.66529e-01,4.34409e-01,-4.76249e-01,
1.00986e-01,-1.91803e+00,-9.97700e-02,1.15076e+00,-1.44407e+00,
4.22852e-01,-1.72847e-01,4.70388e-02,1.35641e-02,5.32565e-01,
4.09609e-03,9.20664e-01,1.14272e+00,-2.27794e-01,3.35537e-01,
-3.67332e-01,1.25964e+00,-1.45924e+00,5.47177e-02,-5.79882e-02,
-2.34453e-02,1.13404e-02,1.30230e-02,1.12267e-02,-6.64771e-04,
2.65476e-01,-1.04362e+00,-1.73457e-01,3.20832e-03,2.02605e-01,
8.15136e-03,-6.33287e-03,-1.08454e-03,-1.67939e-02,-5.56530e-04,
-4.14566e-03,-3.25024e-02,-3.03391e-02,-1.55224e-03,-1.55804e+00,
3.39431e-01,-5.90795e-01,3.39638e-01,-6.51115e-02,-2.96076e-01,
-8.59659e-02,-3.92693e-02,-7.60485e-03,-5.31018e-01,5.55756e-01,
1.70205e-01,1.37738e+00,-1.63761e+00,-1.90920e-02,-2.63239e-01,
-1.57483e-02,4.91687e-01,-5.88033e-02,2.39954e-01,-1.13284e-01,
-1.03710e-01,4.60713e-01,4.10509e-01,3.58344e-01,-4.69045e-01,
1.53313e-02,1.02773e-02,6.03780e-03,-1.34892e+00,3.94997e-02,
-2.27174e+00,-8.81534e-02,8.26593e-04,5.17232e-03,9.24563e-02,
-1.89910e-01,-6.90358e-01,6.70230e-01,9.40801e-02,-3.22294e-01,
2.39889e-02,-2.36747e-02,-1.00539e-01,-3.04320e-01,-1.54106e+00,
-3.56555e-02,1.91108e+00,-5.74942e-01,5.27244e-01,-6.34225e-01,
-2.66398e-02,-1.58468e-01,-4.18940e-01,-3.07116e-01,8.18322e-02,
-1.00564e-01,-7.85532e-01,-4.55220e-01,-3.94468e-01,2.04546e-01,
-1.21243e-01,-5.09403e-01,-2.61850e-01,2.06623e-01,-5.99083e-02,
9.58250e-03,9.40418e-01,-1.26838e+00,-6.50645e-02,2.36744e-01,
-8.62651e-02,4.10964e-01,5.47260e-01,-3.81018e-01,1.40864e-01,
-2.65061e-02,2.69742e+00,1.23401e+00,4.21729e-01,-3.83851e-01,
-3.20190e-02,-1.04112e+00,-6.99360e-01,3.05336e-01,-1.86597e-01,
4.60511e-03,2.15448e+00,-1.83736e+00,-4.38278e-01,6.91781e-01,
1.14763e-01,7.84259e-01,-2.02782e-04,5.95439e-01,-7.79084e-01,
1.87231e-02,-1.91679e+00,9.06111e-01,4.94033e-01,-6.63660e-01,
1.95466e+00,3.80600e-03,1.37983e-03,-3.56514e-03,2.00513e-03,
5.22009e-03,2.22210e+00,5.90201e-02,1.31892e-02,-1.13770e+00,
3.34837e-01,-1.43220e+00,-8.02002e-02,1.89495e-02,-1.74374e+00,
6.25237e-01,-3.94142e-01,-8.65412e-01,5.86894e-01,-7.94062e-01,
3.08752e-02,1.00360e+00,-1.27199e+00,9.70149e-02,2.57486e-01,
5.59467e-01,-2.26152e+00,2.48326e+00,1.19111e-01,6.23625e-01,
-2.79034e-02,-1.69152e+00,1.57810e+00,-4.39244e-01,2.63202e-01,
7.60175e-02,-8.13104e-01,-3.79378e-01,-4.15818e-01,5.14108e-01,
-1.25169e-01,-6.20506e-01,-2.31513e+00,-1.70458e-01,3.72372e-01,
-2.30775e-02,-3.60913e-01,-4.40826e-01,-1.62492e-01,-2.39788e-01,
2.16039e-01,-8.18188e-01,8.56675e-01,-1.99281e-02,1.92654e-01,
6.41100e-01,3.64507e-01,-7.91415e-01,-1.16446e-01,3.38118e-01,
5.53255e-03,1.24454e+00,9.27066e-02,-3.60756e-01,7.17091e-01,
-1.38827e-02,-9.24050e-01,9.85834e-01,-6.07068e-02,2.76328e-01,
1.50975e-01,8.69608e-01,-4.03650e+00,1.98908e-01,1.02889e-01,
5.23423e-01,
1.15270e-01,
-1.03706e-01,
7.13919e-02,
-1.36455e-01,
-4.88136e-01,
-2.57603e-01,
-1.86975e-01,
-1.84624e-01,
6.82124e-02,
-2.20948e-01,
-2.56486e-02,
9.99124e-02,
-2.00603e-02,
-5.28103e-01,
-1.08858e-02,
2.43305e-02,
-3.30445e-01,
1.23786e-01,
1.28616e-02,
-4.14653e-01,
-5.61153e-01,
-7.62139e-03,
-7.51859e-01,
-2.26453e-01,
-3.46886e-03,
-3.27697e-01,
7.27332e-02,
-5.14647e-01,
1.30526e-02,
-5.56427e-01,
-2.94002e-01,
-4.57663e-01,
-1.15669e-01,
-2.45905e-01,
5.42828e-01,
-3.18711e-01,
-6.88861e-01,
-1.47432e-01,
-3.66168e-01,
1.37586e-01,
-8.58112e-01,
9.16487e-02,
8.87002e-02,
5.06166e-02,
-3.76476e-01,
6.20319e-02,
3.18442e-01,
-2.10292e-01,
3.18416e-01,
-1.82801e-01,7.48331e-01,8.23631e-01,-2.12987e-01,-4.04851e-01,1.81182e+00,-2.11777e-01,9.23018e-01,-1.66670e-01,-1.08625e+00,-5.35862e+00,-2.38008e-02,-3.45576e-01,-5.46717e-03,2.73019e+00,2.81671e-02,-8.10345e-01,2.87437e+00,-2.24083e+00,-1.82672e+00,-9.15843e-01,3.42728e-01,-1.13691e-01,4.43482e+00,-8.66677e-01,-2.35408e+00,-2.05750e+00,-2.92922e-01,-3.12250e-02,1.00737e-01,-1.36833e+00,-4.91548e+00,-1.22550e-02,-2.36811e-01,1.16549e+00,-1.60505e-01,-2.97248e+00,1.06750e+00,1.18915e-01,-4.33890e-02,7.08669e-01,-9.74830e-01,-7.10102e-01,-1.99822e+00,1.18345e+00,1.68013e+00,-5.39919e-02,-8.19503e-01,1.15377e+00,-1.53419e-01,
4.34654e-01,-2.32210e-01,7.45704e-01,-1.07619e-02,-2.21391e-02,-8.13829e-01,1.21393e+00,-1.69558e-01,6.25877e-01,-1.60823e-01,2.60473e+00,-3.30452e-02,8.55971e-01,-2.16704e-02,-1.65733e+00,2.09885e-01,-8.28470e-02,1.93324e+00,-6.36062e-01,2.46982e-01,-2.52633e-01,5.87664e-01,4.71367e-01,5.78761e-01,-3.50414e-01,-8.06326e-03,1.03353e+00,3.18296e-01,-8.18952e-01,2.46423e+00,5.10043e-01,5.53146e-01,7.73465e-01,6.75464e-01,-6.92427e-02,4.92876e-01,-2.51947e+00,6.41011e-01,5.46336e-02,5.40397e-01,4.47055e-02,-1.45129e+00,9.51365e-01,-4.70134e-01,2.71135e-01,-7.01124e-01,-1.10664e+00,-1.16304e+00,-1.21650e+00,-1.03334e+00,
2.52948e-01,-6.90211e+00,3.46200e-01,1.53081e+00,-1.70770e-01,-1.09439e+00,-1.49698e+00,-6.48795e-01,3.67778e-01,-9.12240e-03,-1.09548e+00,4.55395e-02,7.20863e-01,4.29776e-02,-3.05898e+00,3.33906e-01,1.54974e+00,-1.97039e+00,-1.02821e+00,-2.45072e+00,6.35690e-01,-1.96174e+00,-1.71943e+00,-6.53517e+00,-5.51971e-01,6.04286e-02,-1.98263e+00,8.23326e-01,-3.87164e+00,9.43037e-01,1.08646e+00,2.39100e+00,-1.46264e+00,-5.73166e-01,-1.94428e+00,2.59789e-01,3.01430e-01,1.15693e+00,4.44811e-01,-2.14842e+00,-1.04796e+00,-2.45987e+00,2.87146e-01,4.95796e-01,1.42280e+00,-3.03519e+00,-2.49704e-02,9.08567e-01,-1.05668e+00,-2.89598e-01,
-5.42266e-02,-1.83739e+00,1.29104e+00,-1.22288e-01,2.25501e-01,-9.50901e-01,1.52589e-01,-6.05122e-01,3.82718e-01,1.33622e-01,-7.63687e-01,-2.16973e-02,2.54208e-01,2.79720e-02,-1.38837e-01,3.20197e-01,4.70778e-01,-6.21375e-01,9.14763e-01,-7.19315e-01,5.14412e-01,3.67641e-01,1.62130e+00,-3.00996e-01,2.85442e-01,2.27302e-02,1.26170e+00,3.12339e-01,2.17729e-01,-1.55899e-01,-3.74119e-01,1.01276e+00,-1.70857e-01,-7.70076e-01,9.11066e-01,-7.80923e-02,4.01593e-01,3.46349e-02,7.65393e-01,-5.66359e-02,-1.48495e-01,-5.63630e-01,-7.55591e-01,7.81827e-01,9.80746e-02,1.58208e+00,-4.81760e-01,1.01954e+00,2.41396e-01,-7.82377e-02,
-1.50696e-02,-7.02541e-01,1.33475e+00,2.04250e-01,3.73689e-01,3.06874e-01,4.87429e-01,-2.74697e-01,-1.42793e-01,-1.23872e-01,1.29501e+00,4.32741e-02,-4.01106e-01,-4.84950e-02,-8.27622e-01,-1.10052e+00,1.01350e+00,-7.34719e-01,8.48757e-02,3.55206e-01,-4.63308e-02,2.57139e-01,1.03803e+00,5.12187e-01,-1.57534e-02,6.80786e-01,1.87489e+00,-9.12976e-02,-1.93800e+00,1.00115e+00,1.78333e-01,1.48090e+00,2.63182e-01,-9.59240e-01,-3.89033e-01,8.86183e-03,7.52914e-01,-1.69510e+00,1.02459e+00,5.31813e-01,4.10205e-01,-7.03563e-01,-1.45356e-01,-5.86192e-01,8.18110e-01,-2.20934e+00,3.85187e-01,3.71256e-02,6.35397e-01,2.60251e-02,
-6.36567e-02,2.33014e-02,5.43569e-03,2.98151e-02,-5.30091e-02,4.53891e-03,-1.50442e-02,-4.82807e-03,-1.16689e-02,1.26467e-02,-1.89240e-02,2.83561e-02,6.64825e-04,-2.27679e-02,-3.73926e-02,-5.47499e-02,-3.64178e-02,-2.53695e-03,-1.38951e-02,9.27273e-03,2.97882e-02,7.60551e-03,-3.73400e-02,-4.32519e-02,-2.43677e-02,4.29776e-02,-4.31465e-02,-1.66731e-02,-5.85018e-02,1.04113e-02,-1.32354e-02,-4.73092e-02,-5.30790e-03,9.89609e-04,7.86844e-03,-6.77308e-02,3.74177e-02,-4.15327e-02,-1.41207e-02,1.42890e-02,-2.48383e-06,-2.38355e-02,2.10658e-02,-5.81679e-02,-2.47103e-02,3.05438e-02,-4.62946e-02,1.00457e-02,-7.33385e-02,-7.68904e-03,
-4.84582e-02,-4.09222e-02,-8.19554e-03,4.35162e-02,-1.49728e-02,-5.07654e-02,1.73670e-02,-9.16365e-03,-3.07071e-02,-1.75517e-02,2.69752e-02,2.20993e-02,-3.25849e-02,-2.49695e-03,3.76129e-02,-5.12259e-02,2.90685e-02,-4.79274e-02,1.74025e-02,1.26207e-02,1.19573e-02,-4.23834e-02,-1.73827e-02,-9.29888e-03,1.07413e-02,-1.34552e-02,-8.29393e-03,1.01717e-02,1.91157e-04,-2.29022e-02,-1.36895e-02,-4.50869e-02,3.02246e-02,-1.07734e-02,-1.28516e-02,-1.59856e-02,2.63588e-02,3.41987e-02,2.91697e-02,-3.94807e-02,2.06452e-03,-8.98880e-03,-3.05823e-02,-2.39706e-02,1.91511e-04,-3.13010e-02,2.03045e-02,-2.66342e-02,-1.78971e-02,-5.55694e-02,
1.73083e+00,-1.20688e-01,3.59118e-01,-6.36474e-02,-2.82425e-02,1.68122e-02,5.19140e-01,-5.60945e-02,7.52716e-01,-9.60624e-02,2.54308e-01,-1.06607e-02,1.00494e-02,3.29692e-02,-7.46536e-02,5.76731e-01,-4.73971e-01,5.39040e-01,5.71902e-01,-6.81247e-02,3.19007e-01,-2.12205e-01,-1.24605e-02,1.27706e+00,5.20980e-01,1.96824e-01,-8.18873e-01,3.72745e-01,2.95750e-01,-5.04039e-01,4.77382e-01,2.77740e-01,-6.90141e-02,2.79387e-01,4.07603e-01,1.81296e+00,-1.13530e-01,5.43168e-01,-1.41966e-01,8.53723e-01,-8.82594e-02,-4.12549e-01,-4.27015e-02,7.43586e-02,5.73496e-01,5.28873e-01,6.22386e-01,6.05174e-01,2.51275e-01,-2.12635e-01,
3.86441e-01,-4.86063e+00,3.23739e-01,-1.36403e-01,1.77885e+00,-1.26633e-01,-7.83047e-01,1.57512e-01,-2.00354e-01,9.32809e-02,1.57531e+00,1.20255e-02,6.47504e-01,-1.01621e-02,2.55472e-02,-5.34373e-01,3.97057e-01,4.82229e-01,3.19707e-01,1.26197e+00,1.26353e+00,-4.90946e-01,4.40902e-01,-5.86557e+00,1.08478e-01,8.36389e-01,-1.07355e+00,-1.48143e-01,-7.94716e-01,2.14498e-01,7.95797e-02,1.36915e+00,-3.98025e-01,3.78380e-01,4.77988e-01,3.78095e-01,4.53669e-01,1.03962e+00,-6.28301e-02,-1.31305e+00,-1.83774e-01,-1.53818e-01,7.09573e-01,-1.71250e-01,1.25401e+00,-3.16961e+00,-1.16766e-01,2.77273e-01,3.29845e-01,-5.19681e-01,
-1.19336e+00,9.19806e-01,-9.46341e-02,2.85612e-01,3.74321e-02,-2.16533e-01,4.35273e-01,-1.01949e-01,4.49438e-01,5.27560e-02,2.53961e-02,-4.63581e-02,-2.17779e-01,-3.62868e-02,-1.01725e-01,1.88355e-01,2.59417e-01,-5.03227e-01,-8.23596e-01,-2.52652e-01,-2.63996e-01,1.31600e-01,-1.06775e-01,2.05847e+00,-7.16222e-02,2.28317e-02,4.11289e-01,3.98000e-01,-1.18934e-01,1.59279e-01,8.86171e-02,-5.71462e-01,1.05710e+00,1.94402e-01,-5.17252e-01,-1.17020e+00,-6.31119e-02,3.78239e-01,9.13217e-01,1.09283e+00,5.47434e-01,-1.24715e-01,-2.28502e-01,-3.00815e-01,-3.51478e-01,-6.08455e-01,-4.67531e-01,-3.81162e-01,-3.02561e-01,-5.96779e-01,
5.51364e-01,-4.14770e+00,-1.11451e+00,-1.16263e+00,-9.48277e-01,1.28625e+00,-1.01567e+00,-1.20858e+00,-6.52699e-01,-7.45784e-01,2.47284e-01,-2.10993e-02,-3.18116e-01,-3.26950e-02,7.17900e-01,-1.21546e+00,5.03486e-01,1.19382e-01,1.40167e+00,4.90680e-01,-3.18156e-01,9.04915e-01,-9.16877e-01,5.08271e-01,4.29591e-01,-7.07553e-01,-2.10803e+00,8.05135e-01,-1.13698e-01,-1.47335e+00,2.51677e-01,-7.37716e-03,5.79157e-01,-1.68908e+00,5.13966e-02,5.09123e-01,5.11586e-01,1.83636e+00,3.79341e-01,8.10217e-03,-1.84316e-02,1.42249e+00,1.38869e-01,-3.26607e-01,-1.04449e-02,-6.31450e-01,2.68833e-01,3.33154e-01,8.16792e-01,4.98796e-02,
2.17010e-01,-6.02374e-01,1.02301e-01,5.93356e-01,-5.07175e-01,-5.40781e-01,8.05302e-02,2.46719e-02,2.28466e-01,-6.18253e-02,-1.57505e+00,4.52370e-02,5.95792e-01,1.81974e-02,2.06018e+00,4.92978e-01,-1.34952e+00,-3.18358e-02,-1.56588e+00,3.91860e-01,-5.13238e-01,-1.16361e+00,-5.90031e-01,3.85109e+00,6.57415e-01,-6.49269e-01,-1.76293e+00,7.21768e-02,-2.53192e+00,6.29907e-01,-2.70450e-01,4.10911e-01,3.71366e-01,-9.02283e-01,7.68167e-01,2.71360e-01,1.31479e+00,2.84258e-01,8.24993e-01,4.73768e-02,-3.18285e-01,-1.39683e+00,1.26838e-02,-1.54183e-01,1.82942e+00,-1.45233e-01,2.96193e-01,5.51814e-02,4.31912e-02,-2.11481e-01,
-3.24608e-01,5.93173e-02,-6.79939e-02,1.21749e-01,2.19131e-01,1.39172e-01,6.33675e-01,-1.46078e-01,9.37905e-01,3.64225e-01,-3.17307e-01,4.33354e-02,-7.84601e-01,-3.65061e-03,4.81179e-01,-2.46049e-01,-8.92642e-02,-2.46413e-01,2.48956e-01,1.03589e+00,-3.64550e-01,1.90369e-01,4.32276e-01,9.39092e-01,-2.15028e-01,3.40503e-01,5.95886e-01,1.34668e-01,4.80174e-01,2.75787e-02,-3.51759e-01,1.52074e-01,-1.06548e-01,-2.49638e-01,-3.12226e-01,-2.89007e-01,8.93365e-02,-2.23528e-01,5.26877e-02,4.45067e-01,-4.06475e-02,2.34824e-01,2.28104e-01,1.43306e-01,1.28663e+00,-1.32767e+00,-5.09929e-02,-1.22174e-01,5.38506e-01,-1.57047e-02,
3.54501e-01,-1.08643e+00,3.38528e-01,3.38954e-01,-3.38837e-01,4.12345e-01,-1.12851e+00,3.05250e-01,4.40807e-01,-1.05990e-01,1.06732e+00,-2.08853e-02,3.62338e-01,1.33447e-02,-1.43861e-01,6.20955e-01,5.70132e-01,3.63333e-01,6.63630e-01,-4.27679e-01,4.72854e-01,-3.44415e-02,5.12771e-01,-1.78560e+00,-1.25520e-01,-1.33405e+00,-1.95002e+00,8.32655e-01,-1.11440e+00,1.85961e-01,1.14511e+00,6.41564e-01,-3.02659e-01,-7.75482e-01,7.59086e-02,3.59931e-01,2.52281e-01,-1.67279e+00,1.07230e-01,-6.37306e-01,-4.90502e-02,-2.63660e-01,7.64680e-01,2.37838e-01,6.51602e-01,-7.27901e-01,-1.34757e+00,2.11435e-01,2.87724e-01,3.56238e-01,
1.90705e-01,-1.68273e-01,9.66234e-01,-1.13499e+00,2.89300e-01,-3.45273e+00,1.28488e-01,1.32315e+00,-3.66295e-02,-5.63364e-02,9.69033e-02,2.20769e-02,3.36280e-01,2.63492e-02,-2.95735e+00,-4.35116e-01,1.15148e+00,4.95194e-01,3.96323e-01,-4.04221e-01,3.94847e-01,4.96582e-01,-2.71023e+00,-9.14949e-01,-4.44217e-01,1.61017e+00,9.33294e-01,-1.09686e+00,-3.80480e-01,-3.76405e-01,8.59236e-01,-1.33547e+00,-6.78843e-01,-6.88783e-01,-1.02149e+00,2.21012e-01,8.19863e-01,-1.70677e+00,3.15149e-01,2.89681e-01,-9.25408e-01,4.79949e-01,7.59234e-02,8.50504e-02,6.30689e-01,3.09542e+00,-3.48876e-01,8.42066e-01,-3.48408e+00,-3.54676e-01,
2.56833e-01,2.93708e-01,1.02877e+00,5.64044e-01,8.20969e-02,2.34345e+00,-3.76753e-02,2.91213e-01,-6.36922e-01,4.32309e-02,4.82571e-01,3.33532e-02,-1.55948e+00,3.38157e-03,5.66333e-01,-3.90862e-01,-9.82136e-01,-2.01695e-01,-6.98453e-02,4.19137e-01,-4.30533e-01,-6.89265e-01,-9.76188e-01,-5.76213e-01,-1.58544e-01,1.66762e-01,-3.70236e-02,-3.85149e-01,2.83926e-01,-1.35365e-01,2.35879e-01,4.28555e-01,3.09674e-01,1.00224e+00,9.67000e-02,1.87146e-01,6.04780e-02,-1.64478e+00,-7.75758e-01,-4.89342e-01,-6.50617e-02,1.22684e-01,-5.54120e+00,8.29722e-01,3.06968e-02,7.51917e-02,-2.26524e-01,5.29505e-01,-1.56147e+00,-7.29309e-01,
-5.02407e-02,-1.43506e-02,1.41048e-02,-2.17974e-02,3.63562e-03,-3.19145e-02,2.58678e-02,-4.54799e-02,-4.24359e-02,-6.41398e-03,3.73483e-02,-3.67785e-03,-5.91504e-03,8.08727e-03,-8.96595e-03,1.86887e-02,1.15101e-02,2.22726e-02,-3.23889e-02,1.61586e-02,3.13771e-02,-7.50097e-03,-2.70635e-02,-7.24253e-03,-3.91852e-02,-4.33445e-02,-1.10900e-02,-2.14385e-02,-1.43816e-02,-4.04360e-02,-1.69292e-02,1.24256e-02,-2.86977e-02,5.91829e-03,-6.12977e-03,-4.41538e-02,-9.92080e-03,2.72484e-02,1.90376e-02,-2.03848e-03,3.64643e-02,3.38508e-02,-3.81080e-02,1.20996e-02,-8.78829e-03,3.57228e-02,-2.67390e-02,2.23036e-02,-5.57748e-02,-4.38874e-02,
-1.95047e-01,-2.69262e+00,-1.56914e+00,1.27210e-01,-3.05710e+00,-8.82436e-02,1.82736e-01,-1.99135e-01,-7.40774e-01,1.18359e+00,-3.26474e-02,8.07461e-04,3.66929e-01,-2.30623e-02,-6.69119e+00,-2.12956e+00,-1.23350e+00,1.82963e+00,-1.04084e+00,1.46881e+00,1.25628e+00,3.39472e-01,-7.86974e-03,-1.14503e+00,-8.39555e-01,-1.71439e-01,7.64714e-02,-1.83648e+00,2.64764e+00,2.01310e-01,1.14692e+00,-1.07243e+00,1.05890e+00,3.42756e-01,-1.53625e-02,-1.36203e-01,-6.78934e-01,1.41813e+00,5.54574e-01,1.62432e+00,5.67741e-02,-1.99291e-02,-8.19009e-01,-2.31284e-01,-5.02067e-01,-4.71119e-02,6.94207e-01,-3.54789e-01,-2.80069e-01,1.71174e-01,
-1.14109e-02,5.69695e-03,-4.40477e-02,9.93089e-03,-3.24158e-02,-3.76029e-02,-4.36762e-03,-5.45835e-03,-5.26568e-02,-1.59000e-02,-3.97703e-02,-5.33986e-03,-5.32684e-02,-1.55610e-02,-2.54716e-03,2.33795e-02,-1.39372e-02,7.18343e-04,-4.19213e-02,-4.47705e-02,-6.14157e-03,2.17875e-02,9.41159e-03,-1.93525e-02,5.89256e-03,2.32600e-02,3.35982e-02,-2.81895e-02,-1.67888e-02,-4.24966e-02,3.14140e-02,-2.04670e-02,-2.34088e-02,-2.16582e-02,-3.55828e-02,1.81641e-02,6.63253e-04,-4.95984e-03,-5.38914e-02,-2.84602e-02,9.94650e-03,-4.44306e-02,-3.10858e-04,-1.95021e-02,-4.19215e-02,-4.86141e-02,3.73499e-02,-3.93065e-02,2.32280e-02,2.79448e-02,
8.67318e-02,1.47103e-01,-3.67666e-01,1.06702e+00,-1.86725e-01,-2.38433e-01,-2.37185e-01,-5.41568e-01,-2.09086e-03,-3.52235e-01,2.78867e-01,-2.07373e-02,-3.18872e-01,4.52544e-02,-3.49159e-01,-1.13678e-01,-2.35583e-01,6.76240e-02,-1.49890e+00,-1.05071e+00,1.50364e+00,2.09295e-01,1.00987e+00,-3.79014e-01,4.59897e-02,6.72326e-01,-4.60015e-01,4.77697e-01,-5.56020e-01,7.54837e-01,6.15604e-01,-9.64077e-01,-3.98337e-01,5.63337e-01,-9.26176e-02,1.01636e-01,1.43091e-01,-9.51409e-02,1.29053e-01,1.09450e-01,1.22929e-01,1.67891e-01,-4.58783e-01,-2.48363e-01,1.26944e-01,-2.80881e-01,3.22355e-01,2.76835e-01,-5.19973e-01,5.29283e-02,
2.92135e-02,-1.73095e-01,6.32224e-01,9.52866e-01,1.29884e+00,-4.07452e-01,-3.62400e-02,1.64744e-01,-7.54393e-01,9.16995e-01,-2.81612e+00,-3.35400e-02,1.12009e+00,1.23229e-02,-2.14647e+00,-5.70549e-01,-2.87372e-01,-2.14757e+00,-6.31579e-01,-1.06058e+00,8.42511e-01,-7.49312e-02,-2.14839e+00,-1.25450e+00,4.05102e-01,1.24146e+00,-7.87622e-01,8.19040e-01,-2.83544e+00,8.38973e-01,7.00618e-01,2.27822e+00,-1.53935e+00,-1.30625e-01,9.11135e-01,5.44669e-02,-3.70429e-02,-7.12906e-01,4.72635e-01,-2.68851e+00,-1.26876e+00,1.82229e+00,7.18764e-01,5.19794e-01,5.67958e-01,1.69257e+00,4.84671e-01,7.46822e-01,-1.21349e+00,2.62722e-02,
1.39964e-01,-1.14187e+00,2.10388e+00,6.09624e-01,1.68448e+00,-3.57079e+00,-1.29053e+00,-4.62402e-02,-1.16742e-01,1.61398e+00,-2.18788e+00,-3.39283e-02,7.82957e-01,9.11085e-04,-7.39467e-01,-2.44484e-01,1.71776e+00,-1.47606e+00,-6.90935e-01,9.35844e-01,1.06205e+00,-9.26307e-01,-2.38783e+00,-2.09416e+00,-2.17967e+00,1.55295e+00,-3.51601e-01,1.17524e+00,-3.31277e+00,1.62942e+00,1.45760e+00,1.59600e+00,-2.03034e+00,3.63776e-01,-7.55655e-01,1.89037e-01,1.63072e-01,-8.27824e-01,3.80083e-01,-1.63435e+00,-9.87230e-01,-4.60415e+00,1.58218e+00,1.26220e+00,-2.07095e-01,-1.44311e+00,-3.78183e-01,8.94203e-01,-2.87320e+00,-5.93170e-01,
7.48083e-02,1.94303e-01,-4.73727e-01,1.08704e-02,-7.39343e-02,-2.80805e+00,7.77968e-01,-4.15864e-01,4.87346e-02,1.15095e+00,-6.35668e-01,-3.84180e-02,-1.26498e+00,-1.11355e-02,-8.82662e-01,-1.44065e+00,4.88917e-02,8.86827e-01,5.18065e-01,8.05016e-01,-8.15942e-01,-1.35327e+00,-2.68228e+00,1.36270e-01,1.14104e+00,-1.96037e-01,-4.57105e+00,-4.29141e-01,-5.62203e+00,-1.88738e+00,-1.22715e+00,-2.95537e+00,-1.68127e+00,8.07555e-01,-1.74238e+00,1.46148e-01,5.97567e-01,-1.85319e+00,1.09674e-01,5.14455e-02,6.43203e-01,-1.49863e+00,4.97918e-01,-2.07121e-01,1.05879e-01,-1.51225e+00,3.32618e-01,9.74485e-01,-2.34362e+00,-4.23825e-01,
-4.23642e-02,-3.19096e-03,-5.19159e-02,-3.45031e-02,-4.37472e-02,-2.85253e-02,-2.08755e-02,-7.22563e-03,-4.76704e-02,1.06837e-03,2.61045e-02,-3.95119e-02,1.09325e-02,-2.68940e-02,-5.22941e-02,1.48672e-02,2.30034e-03,-6.07676e-03,-7.78588e-03,8.75457e-03,-4.03148e-02,-4.60245e-02,-2.82611e-02,4.89091e-03,-4.92778e-02,-5.63045e-02,-8.12285e-03,-8.38049e-03,-3.53207e-02,3.02341e-02,-1.58798e-03,3.58274e-02,-5.06701e-02,-5.05029e-02,-4.14669e-02,3.72839e-02,-2.74109e-02,-3.10920e-02,-4.48644e-02,-3.65144e-02,-1.51675e-02,1.55048e-02,-3.29221e-03,-2.67933e-02,-2.00408e-02,-2.07951e-02,-3.91454e-02,2.70338e-02,9.75511e-03,-1.29084e-02,
5.10420e-01,-1.29049e-01,-2.43516e-01,8.48845e-01,9.10850e-01,-1.49076e+00,-4.39313e-03,-7.09313e-01,1.24747e-01,-2.29332e-01,-4.80464e-01,2.57436e-02,-5.76901e-01,1.87856e-02,-2.93010e+00,-2.89738e-01,-6.66571e-02,-8.45150e-01,8.05828e-01,7.55820e-01,1.38543e-01,3.92031e-01,5.45612e-01,5.94015e-01,-8.28907e-02,5.39902e-01,-2.30220e-01,-4.30559e-01,1.30864e+00,1.55822e-01,-7.09072e-02,3.32219e+00,-8.29999e-02,-6.39424e-01,1.09685e+00,5.04704e-01,4.01496e-01,-2.32081e+00,-3.80174e-01,-2.41578e-02,1.40327e-01,6.73764e-01,-3.43637e-01,-6.86916e-02,6.09052e-01,-4.56483e-01,-4.17404e-01,9.43151e-01,3.63214e-01,1.65292e-01,
-2.66560e-01,-1.45964e-01,5.50722e-02,2.13676e-01,-3.46941e-01,-7.42556e-01,3.12670e-01,5.01932e-02,2.34812e-01,-2.94148e-01,-9.57982e-01,4.19137e-02,-2.82800e-01,2.75246e-02,4.37126e-01,1.57336e-01,-3.28436e-01,-8.11778e-03,4.63019e-02,-1.99153e-01,-5.06447e-02,-1.24855e+00,-7.50879e-01,-3.31398e-01,-1.83439e-01,-6.20049e-01,-8.41471e-01,8.91087e-02,-4.07882e-01,-1.34326e-01,1.98657e-01,-1.15874e+00,3.24826e-01,-1.57373e-01,1.36475e-02,-2.72062e-01,-2.03037e-01,9.90421e-02,2.86541e-01,4.13879e-01,2.99576e-01,-2.75062e-03,-7.59832e-02,2.40168e-01,8.98816e-02,1.87798e-01,6.88060e-01,-6.78095e-02,3.41242e-01,-1.80573e-01,
-2.94899e-02,7.97404e-03,-3.70437e-02,-5.54098e-02,-3.88578e-02,-8.03916e-03,-4.09177e-02,-8.17713e-03,1.79486e-02,-1.46861e-02,-2.13340e-02,3.92389e-02,2.69668e-02,-2.03643e-02,2.06454e-03,3.56824e-02,-3.95011e-02,-3.83539e-02,-3.96255e-03,-8.93761e-03,-2.70669e-02,-2.27153e-02,-1.33690e-02,-1.42748e-02,-4.42946e-02,2.83561e-02,-7.17115e-03,2.26478e-03,4.04299e-02,2.30763e-02,-3.51248e-03,-1.30470e-02,1.84119e-02,-2.74114e-02,-2.45632e-02,-3.92074e-02,8.12261e-03,-1.29306e-02,-1.07718e-02,-2.57147e-02,1.80360e-02,-3.26173e-02,1.58755e-02,2.87314e-02,1.01662e-02,3.12062e-03,-2.24287e-02,-4.36386e-02,-7.00646e-03,-3.02105e-02,
-3.51166e-01,8.12244e-01,-2.47996e-02,1.60989e-01,1.91435e-01,-2.84290e-01,-1.79755e-01,-1.00721e-01,-6.45600e-01,3.39421e-01,-7.31165e-02,-4.21302e-02,6.97344e-01,-7.68562e-03,-9.54541e-01,-8.87908e-01,6.09677e-02,-7.68533e-02,1.02803e+00,-4.33386e-01,1.74740e-01,-3.58272e+00,-8.98721e-01,1.54578e+00,-3.78020e-01,9.33237e-01,-9.76174e-01,1.71572e-01,-9.97624e-01,6.48840e-02,-5.83512e-02,-9.46375e-01,4.76625e-01,8.52189e-02,-2.87139e-01,-2.78574e-01,6.73983e-03,5.44434e-01,5.21218e-02,-6.04996e-01,5.68020e-01,-2.18770e-01,-1.37069e-01,-5.68416e-02,-7.44557e-01,4.48610e-01,9.29602e-01,-2.50859e-01,1.43963e-01,1.93911e-01,
1.71623e-02,-2.92876e-02,1.17140e-02,-3.92261e-02,-2.52553e-03,-2.80323e-02,-3.59091e-02,-3.80672e-02,-1.18349e-02,-3.82865e-02,-2.12672e-02,2.67163e-03,-2.92673e-02,-2.48387e-02,1.45244e-02,-4.48118e-03,-4.56272e-02,-1.71243e-02,-2.54013e-02,-1.14762e-02,-3.61462e-02,-5.41145e-02,-2.44398e-02,4.80363e-02,8.06629e-03,-2.94911e-02,3.76014e-02,-5.28650e-02,-1.94833e-02,2.20186e-02,4.46203e-02,3.01155e-02,4.35837e-03,4.84436e-02,8.50288e-03,-3.09313e-02,-5.16921e-02,1.13179e-02,-2.98205e-02,1.28213e-03,3.63053e-02,4.15141e-02,6.69443e-03,3.50094e-02,5.90866e-03,-4.89316e-02,-3.35815e-02,-3.27168e-02,-3.46104e-02,9.89540e-03,
-1.33633e-02,-4.86222e-01,8.23215e-01,-1.24137e-01,7.56576e-01,1.08271e+00,-1.92185e-01,3.62819e-01,3.66936e-02,-2.04329e-01,-1.18052e+00,-9.55197e-03,4.85037e-01,2.97528e-02,-2.36774e+00,-6.54838e-01,-4.26221e-02,-2.64798e+00,9.59589e-02,-3.09025e-01,4.97737e-01,3.37575e+00,-7.60515e-01,-2.51846e+00,-1.74535e+00,-1.57402e-01,-1.34032e+00,4.79149e-01,-2.99358e+00,9.98398e-01,7.43764e-01,3.55546e-01,-1.56270e+00,-1.26138e+00,4.13314e-01,-2.68435e-02,-3.29370e-01,6.95994e-02,1.59043e-01,-1.05992e+00,-1.05564e+00,8.13371e-02,4.05338e-01,-1.57035e-01,5.58046e-01,1.33100e-01,2.18926e-01,-1.36219e-01,-2.44665e-01,-3.23848e-02,
1.43168e-01,2.41075e-01,-3.97118e-01,-1.60635e+00,8.88118e-01,-3.42223e+00,9.45976e-01,-2.11495e+00,-7.89704e-02,9.18599e-01,-5.40805e-01,3.99470e-02,-1.08297e+00,-3.58156e-02,-1.52020e+00,-1.98305e-01,-7.56798e-01,-1.36527e+00,1.08669e+00,1.27466e+00,-8.50947e-02,1.29348e+00,-1.87108e+00,-9.76369e-01,1.22925e+00,1.63591e-01,1.36574e+00,-6.11208e-01,1.10824e+00,-3.37310e-01,4.54849e-01,-2.53319e-02,-3.43284e+00,1.50564e+00,-2.63904e+00,1.25974e-01,4.74666e-01,-1.17129e+00,4.89212e-01,1.93243e+00,4.75038e-01,-1.89783e+00,9.72845e-01,-1.65100e+00,-2.39713e+00,-1.38928e+00,-1.28635e+00,-3.59023e-01,-2.12063e+00,-1.85917e+00,
8.41987e-04,-4.00268e-02,-2.73759e-02,-4.02766e-02,-5.50588e-02,-2.74066e-02,2.90464e-02,1.55870e-02,-5.06713e-02,3.35436e-03,-3.14129e-02,-9.50733e-03,-3.40244e-02,1.65695e-02,-5.88931e-04,1.98137e-02,-4.31482e-02,-5.51403e-02,2.37147e-02,6.15868e-03,2.39651e-02,1.33353e-02,1.77254e-02,1.34812e-02,-1.42708e-02,1.75852e-02,-5.07772e-02,2.32945e-02,-9.35239e-03,-8.13384e-03,1.95927e-02,-1.01326e-02,-4.09090e-02,-1.50930e-02,-1.78824e-03,-1.79652e-02,-4.17082e-02,-5.00560e-02,3.29482e-03,-3.66509e-02,-4.70853e-02,2.72220e-03,2.88407e-02,-1.80847e-03,2.90276e-02,-1.92731e-02,3.13787e-03,4.50268e-03,1.13566e-02,1.14300e-02,
-4.01225e-02,6.41071e-01,1.79393e-01,2.71398e-01,1.68766e+00,1.02438e-01,-2.05999e-02,-3.63639e-02,7.59887e-01,-4.38038e-01,6.53003e-01,-1.93453e-02,1.38192e+00,-9.67114e-03,1.77051e+00,2.17746e-02,-6.41211e-01,-1.33046e-01,-1.72285e-01,-6.27842e-01,6.80993e-01,8.10881e-03,-1.66091e+00,2.50067e+00,3.78478e-01,2.09866e+00,-2.29552e+00,1.60877e-01,2.71076e+00,8.14980e-01,9.21504e-01,1.60642e+00,-3.52779e-03,5.24757e-01,-7.33667e-01,-3.50945e-02,-5.21618e-01,-6.63836e-01,4.85016e-01,7.78594e-01,-9.11255e-01,-3.78334e-02,-4.64895e-01,-8.88431e-02,7.17551e-01,-4.03442e-02,-9.19774e-01,-4.58910e-01,4.39818e-01,-4.30285e-01,
-3.36058e-01,-5.56775e-03,1.50804e-02,1.76541e-01,5.59059e-02,5.88629e-02,-1.76498e-01,-5.64904e-03,2.93290e-01,-1.74603e-01,-2.32589e-01,-7.05264e-03,-6.71915e-01,2.68108e-02,3.77726e-01,5.98887e-01,1.61779e-01,-3.47569e-01,4.59351e-01,2.75340e-01,-3.10159e-01,-1.23147e-01,4.78729e-01,8.75984e-02,-9.55356e-02,-2.49430e-01,-6.29213e-01,4.21499e-01,1.63452e-01,-1.80182e-01,-1.65138e-01,-1.83594e-02,-4.43864e-01,1.93991e-01,4.69543e-02,-3.39495e-01,-1.50645e-02,2.70685e-01,-1.65486e-01,3.91733e-01,-6.19873e-01,6.88971e-02,-4.97651e-01,2.47271e-01,-2.34783e-02,1.91965e+00,2.44451e-01,2.49107e-01,8.74747e-01,1.92570e-01,
-3.55342e-02,1.20717e+00,2.42928e-02,9.32300e-02,-5.90081e-01,-3.34673e-01,1.74272e-01,-4.92559e-01,7.83630e-02,-7.29840e-01,2.12160e-01,2.86008e-02,-8.01229e-01,-2.52463e-02,-1.97578e-01,-2.78038e-01,-1.43279e+00,-2.91778e-01,7.01304e-01,-1.06239e-01,-6.99094e-01,7.25519e-01,-6.28120e-01,1.44159e+00,-1.56996e-04,6.23503e-01,1.89077e+00,1.34152e-01,-7.93267e-01,-2.75068e-01,-5.83459e-01,-2.08826e-01,1.29422e-01,-3.50771e-03,-1.03120e-01,4.43679e-02,1.39556e-01,-4.91636e-01,3.41812e-01,4.28264e-01,1.23467e-01,-1.41789e-01,9.60932e-02,-5.33893e-01,1.79240e-01,9.56918e-01,4.69211e-02,2.48592e-01,1.21512e+00,4.55003e-01,
-4.42641e+00,3.77877e-01,-2.48944e-02,-4.59752e-01,-3.78836e-01,6.26236e-01,3.78247e-02,1.75447e-03,-1.06632e+00,2.15604e-01,3.79187e-01,-4.10791e-02,9.05838e-02,-4.57490e-02,-3.89669e-01,-6.62130e-02,2.04848e-01,1.07959e-02,7.48407e-01,7.02242e-02,2.43990e-01,-5.91794e-01,-1.20603e-01,1.40319e+00,8.42201e-02,7.71941e-01,-2.16160e-01,2.88298e-02,-1.28402e+00,3.40457e-01,7.93582e-02,-5.95201e-01,3.54964e-01,-2.34077e-01,-2.24943e-02,-4.55964e+00,-4.98117e-02,1.99369e-02,2.43974e-01,-5.21765e-03,-8.60636e-02,-4.85057e-01,-3.01506e-01,1.96400e-01,3.06599e-01,6.58519e-01,8.37416e-01,-1.17323e-01,2.98579e-01,4.92302e-01,
-2.91491e-01,4.47342e-02,3.36742e-01,-1.90083e-01,-1.53938e+00,2.68424e+00,5.79492e-01,1.07706e+00,-9.37706e-02,-1.18623e+00,2.88074e-02,4.52840e-03,-3.40520e-01,2.77083e-02,-2.23555e+00,9.55516e-01,-9.08037e-01,3.43528e-02,-2.97344e+00,-8.29298e-01,-1.93686e-01,-1.66624e-01,1.38324e+00,6.63371e-01,1.19011e+00,-3.31939e+00,-8.80330e-01,-8.92287e-02,-2.58214e-02,-8.63006e-01,-1.88976e+00,-2.12013e+00,-1.85699e-02,1.57951e-01,7.46999e-01,-2.73630e-01,-3.19515e+00,3.09701e-01,4.07059e-01,-5.72341e-02,1.21208e+00,2.48486e+00,-9.16807e-01,-8.78998e-01,-1.52677e+00,3.48956e+00,-6.12883e-01,-1.47379e+00,1.39250e+00,-1.92482e+00,
-3.21910e-02,1.18466e-02,-3.93691e-02,-4.45719e-02,2.25019e-02,-2.80773e-02,-1.54751e-02,-5.53676e-02,-1.86264e-02,3.15551e-02,1.17319e-02,-2.67191e-02,1.65313e-02,-4.23112e-02,-3.47339e-02,-2.38208e-02,-3.23053e-02,2.69493e-02,-2.05261e-02,-1.30628e-02,-3.73244e-02,2.69884e-02,-4.25069e-02,-5.07460e-02,-4.23479e-02,1.60521e-03,-1.72358e-02,-3.35960e-02,2.92517e-02,-4.66199e-02,-3.75023e-03,3.11343e-03,7.43119e-03,-3.34784e-02,1.54861e-02,5.93979e-03,1.79368e-02,3.37122e-02,-3.42867e-02,-3.76306e-03,4.54806e-03,1.57224e-03,-1.41653e-02,-2.11211e-02,5.67589e-02,5.33225e-02,-2.97923e-03,-1.64048e-02,-5.21675e-02,-1.92966e-02,
-5.00550e-01,1.10762e+00,5.56148e-01,1.05531e+00,-2.31486e-01,-1.66932e+00,2.14122e-01,-5.43559e-01,8.11489e-01,-3.51592e-01,-2.00518e-01,-2.66655e-02,3.26696e-01,-2.48921e-02,1.82359e+00,1.41577e-01,2.34903e-01,7.58196e-01,-1.76364e+00,1.71536e-01,-4.70281e-01,3.72123e-01,6.57508e-02,1.25635e+00,-1.10248e+00,-7.41429e-02,-1.79756e+00,6.12885e-01,-4.13531e-01,1.06345e+00,-2.53865e-02,-4.01673e-01,6.96919e-01,6.17327e-01,2.83209e-01,-4.98230e-01,9.27899e-02,6.99500e-01,9.97632e-02,-2.13704e-01,-6.12605e-01,4.07427e-01,-3.26594e-01,3.16709e-02,-2.02899e-01,1.88177e-01,-1.12924e+00,7.31272e-01,-1.24836e+00,-9.18516e-02,
2.46079e-02,-1.14814e-02,-1.83151e-02,7.24279e-03,4.31303e-03,3.10004e-02,-1.83200e-02,-1.69390e-03,6.33827e-04,-2.67717e-02,8.05181e-04,-5.13503e-02,-1.46057e-02,2.19737e-02,-3.62725e-02,-3.92076e-02,2.74121e-03,4.32460e-04,1.12940e-02,-1.93353e-02,-6.51658e-03,-1.32533e-02,-4.20185e-02,-4.07558e-02,-1.01635e-03,1.10170e-02,7.30120e-04,-5.35458e-02,-4.36141e-02,2.60725e-02,-1.86120e-02,9.18758e-03,-4.56448e-03,-3.75718e-02,4.23671e-02,-4.87106e-02,1.76009e-02,3.24900e-02,-3.55175e-02,-4.54370e-02,7.39504e-03,-5.26668e-02,-3.37502e-02,3.49334e-03,-2.48117e-02,1.43788e-02,2.30516e-02,-2.83414e-02,1.97933e-02,1.39672e-02,
-1.53310e-01,-3.48197e-01,1.41493e+00,1.70823e-01,-1.44077e+00,-1.76412e+00,1.02945e-01,6.45826e-01,-2.25903e-01,-8.94737e-01,-9.10675e-01,-3.73347e-03,5.37242e-01,-2.56520e-02,-1.97886e+00,-1.73000e+00,2.73920e-01,2.77447e-01,-1.11947e+00,-1.77656e+00,-8.61133e-01,-8.91489e-02,-1.53585e+00,-1.90629e+00,4.49713e-01,-6.49015e-01,3.32858e-01,2.11374e-02,-5.38451e-01,-5.76366e-01,-6.85744e-01,-5.69257e-01,7.54407e-01,-6.10707e-01,-3.73025e-01,-1.58023e-01,-1.30886e+00,3.79853e-01,-6.42497e-01,6.75429e-01,-1.14357e-02,1.37050e-01,-1.66835e-01,5.35651e-01,-7.53203e-01,-3.94433e+00,-1.39325e-01,7.73911e-02,-6.42532e-01,-6.78598e-02,
-1.19097e-01,-1.06654e+00,-2.96275e-01,-9.58090e-02,-8.39479e-01,-3.71396e-01,-5.92901e-01,-9.01719e-02,3.46080e-02,7.95699e-01,-1.39189e+00,-2.03228e-02,5.33866e-01,-2.12049e-02,-1.62709e+00,-5.82825e-01,8.00378e-01,-1.72567e-01,-1.46407e+00,-8.74020e-01,7.13398e-01,-7.03172e-01,-2.19880e-02,-2.55088e-01,3.42946e-01,-5.18741e-01,4.85969e-01,6.96248e-01,-6.05867e-01,9.78254e-01,-9.30018e-01,3.20080e-02,-4.01322e-01,6.76116e-01,5.91737e-02,-1.05356e-01,-7.20386e-01,4.98415e-01,-2.78121e-02,-2.51184e+00,-3.42822e-01,-1.31127e-01,-1.07852e-01,2.44164e-01,-7.67517e-02,2.27266e+00,2.36393e-01,-1.97296e-01,-1.15118e+00,7.19145e-02,
2.69091e-01,3.95362e-01,-9.41844e-03,2.49905e-01,-6.05979e-02,-3.68983e-01,-1.05546e+00,-8.50701e-01,8.56168e-03,6.60194e-01,-3.92493e-01,4.71759e-02,-5.52659e-01,-2.24094e-02,-1.91971e+00,-7.88007e-01,4.47050e-01,4.97041e-01,-7.39726e-01,3.13358e-01,6.24947e-01,-1.08133e+00,-3.99924e-01,-3.45480e+00,4.38122e-01,2.33092e-01,-2.27970e-01,8.46231e-02,-6.16687e-01,-3.34827e-01,-1.10516e+00,-1.34958e+00,-9.30025e-02,1.08672e-01,-2.83072e-01,2.81775e-01,-4.94429e-01,-1.53697e-01,1.29939e-01,1.65569e-01,-3.95337e-01,-7.20852e+00,-7.10345e-02,1.48225e-01,8.52294e-01,-2.84314e+00,-7.37935e-02,-1.89297e-01,-2.57210e+00,-4.58612e-01,
2.53996e-01,-1.74939e+00,3.08283e-01,-7.71151e-01,-2.83004e+00,-2.06131e-02,-5.62805e-01,-1.91463e+00,3.02373e-01,-5.54895e-01,2.28706e-02,9.79708e-03,-9.25948e-01,-1.46228e-02,1.36349e+00,6.68222e-02,3.96998e-01,1.21236e+00,5.45662e-04,2.64431e-01,-4.17564e-01,7.77058e-01,-8.82530e-01,1.69320e+00,-3.87630e-01,5.78148e-01,-8.21456e-01,-7.25433e-01,-5.72938e-01,1.55946e-01,-3.50039e-01,1.34058e+00,-3.39029e-01,-1.22389e+00,-1.22283e-01,2.88077e-01,1.56801e-01,1.03327e+00,2.16150e-01,-2.39150e+00,-2.65218e-01,1.26346e+00,-2.15578e-02,-3.02457e-01,9.48739e-02,-1.75399e-01,-2.36862e-01,-6.53519e-01,5.83202e-02,-6.61406e-03,
1.22608e-02,-3.74311e-02,2.63927e-02,-3.11461e-02,-3.75280e-02,-2.53054e-03,-2.04811e-02,-3.37290e-02,-4.97310e-02,8.93900e-03,-2.25030e-02,2.93830e-02,2.05499e-02,-2.04193e-03,2.85998e-02,-3.40015e-02,-3.69954e-02,2.25195e-02,-1.95557e-03,-2.65750e-02,-1.88133e-02,-2.33700e-02,-7.00490e-04,2.62899e-02,-1.45742e-02,-2.69168e-02,-4.35323e-02,1.78991e-02,-5.04796e-02,-1.31982e-03,-1.30112e-02,-6.34422e-03,-3.47317e-02,-2.89852e-02,-4.66512e-02,-2.03299e-02,1.41933e-02,2.95076e-02,-1.36582e-02,-3.72917e-03,-5.15891e-02,-1.87089e-02,1.84073e-02,-9.29987e-03,1.00545e-03,-2.07288e-02,-4.50622e-02,-3.65387e-02,2.81627e-02,2.42385e-02,
1.09673e-02,8.31806e-01,-1.45918e+00,-1.29446e+00,1.55144e-01,-2.31892e+00,7.52490e-01,-1.10164e+00,-1.04789e-01,-2.83151e-01,1.13878e+00,-3.21233e-04,-1.60921e+00,4.98495e-02,1.27231e+00,8.25396e-02,-1.66027e+00,1.83457e+00,8.34774e-01,1.90317e+00,-1.43610e-01,4.52674e-01,-5.92969e-01,2.92243e+00,1.02267e+00,2.24476e-01,1.19961e+00,-1.74841e+00,3.39380e+00,-1.58087e+00,-8.78823e-01,-2.38021e+00,7.92492e-01,1.77584e+00,-1.69663e+00,8.04054e-03,9.35959e-01,-1.56045e+00,-3.33938e-01,3.10446e+00,6.38616e-01,-2.02897e-01,-9.74203e-01,-1.09317e+00,-3.43589e-01,1.03929e+00,3.88686e-01,-5.88856e-01,8.62051e-01,2.74329e-01,
1.13258e-01,2.52616e-01,1.03243e+00,8.96000e-01,-4.98732e-01,-2.98487e+00,-4.13937e-01,1.26981e+00,1.40030e-01,4.90051e-02,-9.18393e-01,3.49533e-02,-2.06137e-01,1.05509e-02,1.29760e+00,5.48517e-01,-4.58917e+00,-2.08520e+00,-1.56127e+00,-1.96876e+00,-5.34175e-01,-6.46852e-01,1.31869e+00,-1.37979e+00,-2.25905e+00,-1.54071e+00,-3.26459e+00,9.12680e-02,-1.86616e+00,-1.58055e+00,2.05478e+00,-7.30602e-01,6.50407e-02,-1.93649e+00,1.38478e+00,4.03800e-02,-4.87829e+00,1.11535e+00,-1.56059e-01,-3.07929e+00,-5.24502e-01,-8.55564e-01,-1.12798e+00,7.69375e-01,-1.58099e-01,1.47096e+00,3.99773e-01,-4.22607e-02,-1.16941e-02,8.19128e-01,
-8.92446e+00,-1.71777e+00,-6.97272e-02,-6.19585e+00,1.33322e-03,-2.32472e+00,1.86653e+00,-3.26676e-01,-5.33146e+00,9.93357e-01,-5.64940e-01,-2.84756e-02,-3.21662e+00,3.65260e-02,1.44909e-01,-6.44682e+00,-5.01818e-01,1.01151e+00,-5.99471e-02,-4.44097e-01,-2.48031e+00,2.95507e-01,-3.51085e+00,-4.39718e-01,7.81621e-01,-5.76939e+00,-7.80180e-02,-3.32496e+00,-4.89016e+00,-1.97204e-01,1.42842e+00,-9.84217e-02,-3.24107e+00,-6.15385e-01,7.57154e-01,-8.74927e+00,-1.17261e+00,5.48408e-02,8.83634e-01,-4.54170e+00,-2.46477e+00,9.37993e-02,9.72248e-01,-9.96344e-01,-2.34203e+00,1.85591e-01,2.63686e-01,1.55844e+00,-3.36906e+00,-1.22080e-01,
-4.17917e-02,-2.63955e-02,-4.35617e-02,-6.36129e-03,1.04014e-02,-5.46468e-02,-2.22163e-02,-4.63503e-02,-7.75458e-03,-1.68618e-02,-5.22711e-02,-1.68772e-02,-1.39540e-02,1.35515e-02,-2.91249e-02,2.13614e-02,-2.70684e-02,1.89993e-04,-3.31611e-02,-2.79024e-02,3.88533e-02,7.09101e-03,4.42897e-03,4.70128e-02,5.04046e-02,-3.01823e-02,-5.03941e-02,2.01315e-02,2.12349e-02,-1.72165e-03,-1.92954e-02,2.34219e-02,2.19321e-02,6.15850e-03,-2.41077e-02,1.12522e-02,-1.53077e-02,-3.53957e-02,-4.51497e-02,-4.78130e-02,1.71060e-02,-4.88634e-02,3.37422e-02,-3.33397e-02,-4.09118e-02,-2.03202e-02,-5.05706e-02,6.57687e-03,-1.83940e-02,2.81460e-02,
-3.93688e-02,2.32437e-02,-2.48979e-02,-4.80716e-02,-4.81756e-03,-3.82492e-02,2.30861e-03,2.60842e-02,-4.91072e-02,-3.85693e-02,-7.35368e-03,-1.45603e-02,-5.81536e-02,3.23919e-02,-4.62232e-02,6.38265e-03,-1.51643e-02,-3.51194e-02,-6.06140e-03,-1.99830e-02,5.63258e-03,2.73682e-03,-1.07489e-02,1.52778e-03,4.06298e-03,4.61463e-03,-4.13526e-03,-5.79247e-02,-2.68364e-02,-1.60508e-03,-2.73174e-02,-3.81740e-02,1.11618e-02,9.37715e-03,2.43893e-02,-1.55845e-02,-4.05196e-02,3.98826e-03,-4.42074e-03,-2.13727e-02,-1.48701e-02,4.77200e-02,-4.51800e-02,5.09397e-02,-3.69574e-03,3.65066e-02,-3.59088e-02,-9.96913e-03,8.63754e-03,-9.80987e-03,
-3.04109e-01,
-8.03250e-01,
7.90130e-01,
-9.27326e-01,
-1.42435e+00,
-3.96676e-02,
-1.54906e-02,
-2.57070e-01,
-6.35989e-01,
2.58478e-01,
-1.14880e+00,
8.02705e-01,
-3.06186e-01,
-1.35614e+00,
2.31010e-01,
-3.56317e-01,
-2.56099e-02,
-1.55302e+00,
-1.65258e-02,
3.72340e-02,
1.20403e+00,
8.84560e-01,
7.28089e-01,
-2.82942e-02,
-1.21064e+00,
6.11217e-01,
-1.23157e-02,
1.30025e-01,
-6.10049e-03,
7.87688e-01,
9.42388e-01,
-2.14051e-02,
-9.20502e-01,
-7.35738e-02,
3.39332e-02,
3.82917e-01,
-1.01822e+00,
-1.54134e-02,
5.83385e-01,
-1.59619e-02,
5.86583e-01,
6.59385e-01,
5.94777e-01,
1.08996e+00,
-1.59193e-02,
-4.55592e-01,
-1.09400e-01,
5.72755e-01,
-1.50588e-02,
-1.70725e-02,
1.17772e-01,-9.28667e-01,4.83281e-01,-1.03125e+00,-4.19955e-01,-3.37459e-02,4.06788e-02,6.31613e-04,-8.87775e-01,-1.60223e+00,-8.96987e-02,6.45645e-01,-1.46333e+00,2.31115e-02,-3.31196e-01,1.04286e+00,-2.67121e-02,7.11524e-02,4.32798e-02,1.83099e-01,-4.08090e-01,4.44500e-01,8.66543e-02,1.56180e-02,-7.12294e-01,-8.42005e-01,3.26346e-02,8.48916e-01,-2.11761e-02,2.95643e-01,-2.41208e-02,-1.87921e-02,5.77623e-01,-2.32445e+00,2.68379e-01,-2.73461e-01,2.88091e-01,-3.35898e-02,-1.70450e-01,3.01848e-02,8.77385e-01,2.14941e-01,-1.21151e-01,-3.05697e-01,3.09697e-02,2.84028e-01,-9.98771e-02,6.39156e-01,5.48519e-02,-2.56241e-02,
6.50157e-02,5.02902e-01,-1.09217e+00,5.43575e-01,-7.77865e-01,-5.95086e-02,-3.09720e-02,-2.31094e-01,-1.02458e+00,1.56193e+00,2.69510e-01,3.83919e-01,1.11963e+00,-8.00721e-01,1.20854e+00,7.41681e-01,3.51613e-02,-3.72361e-01,-4.23430e-02,2.51687e-01,-5.55250e-03,-4.38138e-01,8.55157e-01,-2.93665e-02,-5.25177e-02,-1.67134e+00,-3.48783e-02,-1.37931e+00,1.47160e-02,7.99036e-01,-9.91778e-01,-4.15847e-02,3.64920e-01,9.36927e-01,1.05012e+00,1.06852e-01,3.57522e-01,1.26542e-02,3.45300e-01,-3.31821e-02,9.14321e-01,-3.87687e-02,1.30498e+00,3.02240e-01,-3.20538e-02,-1.45656e-02,-4.03694e-01,-7.74337e-01,-3.11206e-02,5.05927e-03,
-7.91424e-01,1.96964e-01,4.88431e-01,-2.43123e-01,8.13729e-01,-7.39158e-03,-4.71437e-02,-1.58848e-01,4.38646e-01,1.27545e+00,9.24094e-02,-4.38929e-01,1.78466e-01,-3.74649e-01,-3.10879e-01,1.70198e+00,3.12115e-02,-1.81686e-02,1.49527e-02,3.64865e-01,-4.20911e-01,-4.84396e-01,-3.74142e-01,2.13904e-02,6.89682e-01,6.28389e-01,1.14042e-03,2.93976e-01,-1.45470e-03,1.07237e-02,7.27290e-01,3.70095e-02,-2.03844e+00,4.60574e-02,5.21406e-01,4.21053e-01,-5.67587e-02,-8.27675e-03,2.79593e-01,1.63962e-02,8.23450e-01,1.30141e+00,-1.60057e-01,9.13127e-01,-1.41538e-02,-1.23397e-01,6.54687e-01,-2.60904e-01,2.96528e-02,-7.01679e-03,
-4.57467e-01,1.21659e+00,4.90978e-01,2.11849e+00,-2.02615e-01,5.42309e-02,-4.35207e-02,-4.25128e-01,4.75466e-01,6.93346e-01,8.88182e-01,-1.78250e-01,1.60539e+00,1.55349e+00,9.82827e-01,6.03055e-01,-4.39719e-02,-3.00284e-01,3.92171e-03,5.62850e-01,-5.93377e-01,-4.26570e-01,-4.12040e-01,3.31148e-02,5.26659e-02,5.44978e-01,6.39698e-03,-4.16938e-01,3.01876e-02,1.18467e-01,-8.51108e-02,-3.94003e-02,8.03704e-01,-1.73618e-01,3.42225e-01,5.52035e-02,1.49480e-01,-1.66079e-02,-4.96966e-02,1.32684e-02,1.40378e+00,1.32943e+00,-5.53819e-01,2.28215e-01,4.33678e-02,1.46591e-01,7.42595e-01,1.45944e+00,2.75634e-02,-1.13631e-02,
-2.09737e-01,8.43319e-02,-6.80835e-02,-4.63299e-02,2.96538e-01,1.23459e-03,3.77372e-02,-6.51755e-01,-4.40961e-01,7.70773e-01,-7.83389e-02,8.44034e-01,-9.33196e-02,4.05324e-01,8.62532e-01,5.73467e-02,-4.25716e-02,-1.32140e-02,7.14506e-03,8.98410e-01,-5.81196e-01,3.36137e-01,3.20134e-01,-9.45478e-03,-9.94299e-01,2.48214e+00,-8.43418e-03,1.34314e+00,1.78113e-02,3.91239e-01,2.32023e-01,3.89536e-02,1.13725e+00,-6.86649e-01,-1.28427e-01,4.32411e-01,2.14588e-01,-1.62674e-02,-8.49757e-01,1.53517e-02,5.60415e-01,-3.08347e-02,6.42418e-01,6.92154e-01,-4.35286e-02,3.00954e-01,6.05227e-01,9.62377e-01,-2.05001e-02,4.53946e-02,
-1.20705e-01,-2.00820e-01,6.65155e-01,1.00173e+00,3.84624e-01,-2.46847e-02,-1.09606e-02,1.23456e-02,-1.32128e-01,-1.37734e+00,-1.55505e-02,-1.06125e-01,-4.64246e-01,2.59583e-01,1.17167e-01,1.27048e+00,-1.62671e-02,3.66135e-03,8.81601e-03,-1.04355e-01,-2.32290e-01,5.57586e-02,3.15888e-01,-4.02423e-02,-6.83983e-01,-4.45330e-01,-1.47376e-02,-3.83621e-01,-1.05219e-02,3.67602e-01,1.05449e+00,-4.31702e-02,3.01450e-01,-8.52299e-01,6.76344e-01,-1.25053e+00,7.13394e-01,-9.29224e-05,4.89440e-01,2.36218e-02,6.95901e-01,6.45341e-02,-3.70079e-01,2.48861e-01,3.63642e-02,7.00801e-01,7.94523e-01,1.61189e+00,-4.80966e-02,-3.61603e-03,
-3.86971e-01,1.42600e-01,5.29501e-01,-1.71147e+00,5.40976e-01,1.47254e-02,5.34052e-02,-6.58178e-02,-3.77352e-01,-1.42468e-01,-1.08688e-01,1.52194e-01,-1.69789e+00,-1.89316e-01,1.10391e-01,1.51243e-01,-2.32993e-02,1.05025e-02,-2.96066e-02,3.74552e-01,-2.00495e-01,1.60452e-02,7.30335e-02,3.66994e-02,-2.49772e-01,-6.51769e-02,-2.35023e-02,2.51481e-01,4.18649e-02,1.71302e-01,-1.36726e+00,-1.51374e-02,-1.57458e+00,-2.23273e+00,-4.45233e-01,-4.67734e-01,3.50315e-01,3.36064e-05,9.48741e-02,1.97749e-03,-3.18952e-02,8.67016e-01,2.56673e-01,5.81771e-01,-4.57287e-02,4.81630e-01,5.91619e-01,1.19762e+00,-2.31437e-02,-2.08856e-02,
7.27923e-02,-9.50059e-01,-1.67593e-01,-1.12519e+00,-4.18792e-01,2.64900e-02,-3.30064e-03,4.58304e-01,-6.80105e-01,1.37710e+00,7.41346e-01,9.10137e-03,8.74891e-01,5.56153e-01,-1.29164e+00,1.31721e+00,8.04908e-03,2.01460e-02,1.72814e-02,-1.23329e-01,9.52483e-02,6.76215e-01,-2.38631e-01,-3.59756e-02,5.68542e-01,-9.26201e-01,-3.10990e-02,1.78868e+00,-5.01512e-02,5.36156e-02,7.07600e-01,4.76241e-02,1.88042e+00,2.74770e+00,-2.96723e-02,-9.37819e-01,8.23469e-01,3.09025e-02,1.27900e+00,5.02274e-02,-2.92731e-01,3.49728e-01,3.90830e-02,-8.08865e-01,3.43356e-02,4.36123e-01,7.65789e-02,-6.16560e-01,-4.02924e-02,-9.14067e-04,
8.05230e-01,4.30623e+00,-6.32010e-01,-2.85320e+00,-4.19814e-01,2.45992e-02,3.78871e-02,-1.72116e+00,-3.42529e-01,7.26637e-02,-2.67776e+00,1.50942e+00,1.02981e+00,-5.79190e-01,-4.86495e-01,5.39399e-01,-5.19258e-03,5.63390e-01,-2.70047e-02,5.23475e-01,-6.07195e-01,-4.48298e-02,5.54287e-01,-2.35256e-02,2.98583e-01,-5.91631e-01,2.41332e-02,8.60669e-01,-4.09307e-02,4.95478e-01,1.19024e+00,-2.86638e-02,4.60952e-01,3.60449e-01,1.90586e+00,-4.51144e-01,-2.45362e-01,2.88919e-02,-6.85787e-01,4.24035e-02,1.82129e+00,2.35798e+00,3.04336e+00,1.29779e+00,-3.40485e-02,6.13433e-01,9.59979e-01,1.86451e+00,-1.42467e-02,-4.21478e-02,
5.68838e-02,-1.02785e+00,-2.63458e-01,-1.18308e-01,7.41438e-01,8.99211e-03,-4.03218e-02,3.93167e-01,2.41985e-01,-1.03921e+00,7.08797e-01,-4.17260e-01,-1.68801e+00,-8.39108e-01,-4.66653e-01,4.07936e-02,5.29419e-02,3.07119e-01,1.34845e-02,-3.27810e-01,6.87563e-01,4.82964e-01,6.03919e-01,-7.53695e-03,-6.40735e-02,6.68631e-01,4.33610e-02,-2.17754e-02,4.73878e-02,3.56933e-01,-2.69629e-01,1.47995e-02,-3.78757e-01,-3.22919e-01,-1.33270e+00,1.45736e-01,3.19257e-01,-4.67427e-02,-3.37121e-01,-1.14873e-02,4.43327e-01,-2.23754e-01,1.70774e-01,-1.50711e-01,-1.41815e-02,6.56480e-01,5.30322e-01,2.09998e-01,8.96081e-03,-3.75763e-02,
-6.04969e-03,-7.48282e-01,-1.36124e-01,5.93095e-01,8.29868e-01,5.96905e-03,2.72457e-02,3.59619e-01,-1.06482e-01,1.26486e+00,-3.89988e-01,2.28653e-01,-7.78862e-01,-1.24099e+00,-1.32519e-01,-8.55811e-01,-1.83754e-02,1.03939e-01,-3.34804e-02,-2.21876e-02,1.00703e-01,-1.34732e+00,9.40043e-02,-5.13355e-02,-1.61850e-01,-6.83660e-01,-3.93377e-02,-1.20928e-02,2.31091e-02,-6.77181e-01,-4.02762e-01,4.14487e-02,-7.29420e-02,-3.57815e+00,-9.85102e-01,-1.67345e-01,1.97254e-01,-4.75192e-02,-9.47671e-01,2.66667e-02,-1.08199e+00,1.59698e-01,2.01878e-01,2.14747e-01,2.94893e-02,3.52063e-01,4.12608e-01,-1.61318e+00,1.74457e-02,-1.70300e-02,
1.42371e-02,-1.84821e+00,6.99128e-02,-2.76538e-01,-1.02264e-01,2.97519e-02,-1.83707e-02,-1.62447e-01,-3.21422e-01,-2.06592e-01,5.07579e-01,6.36720e-01,-1.37206e+00,-7.28308e-01,-6.62838e-01,-1.17155e+00,1.96456e-02,1.33804e-01,3.21283e-02,-1.42453e+00,7.66633e-02,5.99231e-01,8.99729e-02,-1.07024e-02,-1.35803e+00,-1.50035e+00,-3.28683e-02,-1.04912e+00,2.59408e-02,2.60916e-01,-2.80149e-01,-3.10269e-02,-7.69785e-01,-7.52439e-01,-4.08874e-01,4.24024e-01,1.81851e-01,2.22815e-02,1.90424e-01,-6.33610e-03,-5.16159e-01,-7.99677e-01,1.45808e+00,4.96512e-01,-3.85803e-02,2.65651e-01,-2.45487e-01,-5.80530e-01,4.84638e-02,-2.55988e-02,
-9.03500e-02,6.42796e-01,2.41941e-01,-9.61790e-01,4.44046e-02,7.44874e-02,-7.57156e-04,4.99396e-02,-1.37785e-01,6.39805e-01,2.14112e-01,2.28490e-01,-7.30788e-01,2.84977e-01,5.79477e-01,-8.58319e-01,-3.91051e-02,-6.06282e-01,1.74597e-02,3.36444e-01,-4.70645e-01,5.67375e-01,4.17229e-01,-2.91247e-02,-5.77482e-01,-1.23051e+00,2.79922e-02,8.15081e-01,9.88296e-03,-4.57751e-01,3.33549e-01,-1.78705e-02,2.23904e+00,-1.78614e+00,-8.63824e-01,2.54023e-01,2.02216e-02,-3.68810e-02,3.64115e-01,-1.72191e-02,2.51509e-01,-4.79232e-02,5.08077e-01,-3.46216e-01,-3.13859e-02,8.34692e-01,-2.66952e+00,8.65613e-01,4.11129e-02,6.96022e-03,
-9.29433e-01,-3.29813e-01,-5.80619e-01,-9.13852e-01,-2.73190e+00,-2.26134e-02,2.76425e-03,3.58303e-02,-7.97875e-01,1.81950e+00,-1.50979e+00,-5.59557e-01,1.23430e+00,-1.66815e+00,2.05935e-01,8.42699e-01,-3.14146e-02,-8.48789e-02,2.95652e-02,-2.64636e-01,2.30727e-02,-4.56523e-01,-3.08579e-01,4.57022e-02,1.22389e+00,-2.03109e+00,-3.65867e-02,-2.02648e+00,-7.32912e-04,5.71787e-01,3.35301e-01,3.30299e-02,-1.57631e+00,8.44182e-01,6.26011e-01,1.00403e-01,-2.50271e-01,-1.19683e-02,-1.53033e-01,3.88255e-02,5.29954e-01,1.07778e+00,-2.74295e-02,-3.69420e-01,3.34026e-02,-3.03306e-01,-6.57496e-01,-1.13749e+00,3.38080e-02,4.57921e-02,
7.04976e-01,-1.09454e+00,1.21456e+00,1.46537e+00,-3.92052e-01,4.74904e-02,1.11052e-02,2.92445e-01,7.62177e-01,1.03399e+00,5.31381e-01,-1.04892e-02,7.98008e-01,3.25811e-01,-7.17479e-01,1.79700e+00,-2.61580e-02,1.10543e+00,3.10653e-02,-1.74771e+00,1.71865e-01,4.63378e-01,-1.26591e-01,-7.09153e-03,2.28347e+00,1.84943e+00,3.70354e-02,2.03418e+00,-1.04708e-02,-1.01246e+00,6.82462e-01,3.98136e-03,1.55666e+00,9.01340e-01,-6.69462e-01,-6.58005e-01,8.97692e-01,-3.31908e-02,-3.69793e-01,4.05069e-02,8.45645e-01,2.23694e+00,7.02461e-02,-4.03739e-02,-3.55012e-02,1.45152e+00,1.02588e+00,6.78023e-01,9.62786e-03,-6.42401e-02,
3.13328e-01,7.74950e-01,5.95871e-01,8.67471e-01,1.82086e+00,2.06432e-02,-8.31768e-03,-2.07596e+00,1.22821e+00,1.20583e+00,4.65116e-02,-4.29739e-01,6.53551e-02,-1.73099e-01,-2.43827e-01,1.18767e+00,-2.28828e-02,7.03558e-01,4.35780e-02,1.80403e-01,1.48487e-02,-3.34447e-01,-9.01531e-02,-1.56965e-02,-8.83656e-02,1.98197e-01,-4.32858e-02,-2.81437e-01,4.30134e-02,1.08150e-01,9.35513e-01,4.52718e-02,2.40976e-01,1.54955e+00,6.84801e-01,1.03619e+00,3.20313e-01,1.88709e-02,-2.93699e-02,3.66719e-02,-5.41848e-03,5.47964e-01,-3.10122e-01,3.05313e-01,-2.80722e-02,2.85636e-01,6.33486e-01,2.20634e-01,3.50592e-02,2.49394e-02,
-9.19009e-01,-5.30897e-01,-2.63474e-01,2.18469e-02,-1.95619e+00,-2.50494e-02,-2.75977e-02,5.02477e-03,8.47492e-01,3.51710e-01,2.71371e-01,-4.05363e-01,1.44588e+00,-4.29858e-01,-5.31655e-03,-7.17645e-01,-8.30079e-03,6.94938e-01,-1.07860e-02,6.78360e-01,7.98285e-02,5.80916e-01,1.29627e-01,-2.67533e-02,3.73600e-01,-1.86441e+00,-2.82776e-02,-1.76433e+00,2.40254e-02,2.43375e-01,-4.16631e-01,-4.04725e-02,3.45413e-01,-4.29356e-01,-5.74580e-01,1.00903e-01,-3.41441e+00,-2.91273e-02,-5.11229e-01,9.52507e-03,2.10121e-01,1.32616e+00,-1.58163e+00,6.39087e-01,-4.73809e-02,3.43410e-01,6.50325e-01,1.89917e-01,3.90625e-02,3.08662e-02,
6.13913e-02,2.56490e-02,-5.45037e-01,-3.09732e-01,1.65820e-01,1.14027e-02,2.72954e-02,-9.21545e-02,2.65915e-01,4.08770e-02,1.76874e-04,2.90199e-02,5.71604e-01,9.13441e-02,3.28354e-01,6.14927e-01,-2.51678e-02,1.18257e-01,-4.57829e-03,7.13040e-02,1.34703e-01,-2.24167e-01,-1.76604e-01,4.22408e-02,3.19421e-01,1.55024e-01,-5.94697e-03,3.55400e-01,-2.44354e-02,-4.07322e-01,-1.60356e-02,1.77781e-02,1.02766e-01,4.69450e-01,5.94196e-01,-1.69919e-01,-3.55885e-01,-3.45189e-02,1.79526e-02,-5.02634e-03,-8.77935e-03,3.30941e-01,4.79712e-02,-1.55454e-01,-4.84501e-03,-4.35807e-01,-3.71996e-01,-2.59970e-01,1.60636e-02,9.66601e-03,
-7.13931e-01,-1.24449e+00,8.37427e-01,-1.04395e+00,-2.55363e-01,1.94062e-02,-4.67691e-02,1.54834e-01,2.16752e+00,-5.28616e+00,-8.32014e-01,1.53509e-01,-3.83647e-01,-1.77479e+00,9.43455e-01,1.27999e+00,-4.27283e-02,-8.01032e+00,1.18342e-03,3.72650e-01,-5.39400e-01,1.14119e+00,1.03992e+00,-1.30221e-02,-4.62924e-01,4.13648e-01,-3.78226e-03,2.24820e-01,-4.21240e-02,-2.15653e+00,1.36329e+00,-3.39977e-02,1.60168e+00,-3.29096e+00,-5.47471e+00,-1.97322e+00,1.66580e+00,1.02946e-02,-5.66364e-01,-4.11176e-02,-1.66347e+00,-1.31724e+00,2.84808e+00,5.88644e-01,2.88181e-02,-2.87814e+00,-1.41177e+00,-8.84570e-01,4.25313e-02,6.01201e-03,
7.18779e-02,-1.96403e+00,1.30385e-01,-4.95894e-01,-2.39461e+00,-6.11266e-02,-3.96019e-02,-2.51706e-01,-3.39891e-01,-1.61703e+00,-3.02492e-01,-2.31144e-01,-1.06168e+00,2.47638e-01,9.05572e-01,-4.22417e-01,1.60139e-02,4.90664e-01,2.91217e-02,-5.34612e-01,5.07559e-01,1.57351e-01,2.57647e-01,4.09537e-02,9.00904e-01,-4.21725e-01,-3.25752e-02,-7.55695e-02,-5.90804e-03,4.24021e-01,1.45364e-01,5.70873e-02,-6.95952e-01,-1.94860e+00,-2.51305e-01,-1.41236e+00,5.05751e-01,-1.98467e-03,7.31459e-01,2.66659e-02,6.16794e-01,-3.04820e-01,4.53927e-01,-8.11165e-02,-4.11818e-02,5.68949e-01,-3.70127e-01,-7.41195e-01,-4.13136e-02,3.22374e-02,
7.51493e-01,-8.31564e-02,-1.39801e+00,-1.88699e+00,-1.29367e+00,-5.24109e-05,1.72183e-02,5.11388e-02,-5.59207e-01,-7.58709e-01,-3.25346e-01,4.48535e-01,-2.13365e+00,-3.15499e-01,-7.38598e-02,-6.89091e-01,-3.61686e-02,-9.99620e-02,4.88679e-03,-3.35168e-01,1.78776e-01,-1.06122e+00,-5.28564e-02,-5.12354e-02,-5.21466e-01,5.63329e-02,1.39677e-02,2.28617e-01,4.00902e-02,3.02679e-01,-9.70987e-01,3.92584e-02,2.07250e-01,1.13761e-01,-4.66766e-02,-3.15939e-01,-4.23938e-01,-1.43354e-02,-4.96043e-01,-2.41287e-02,4.56870e-01,-2.79171e+00,1.11026e+00,-2.23275e-01,3.26167e-02,1.17079e-01,2.11818e-01,3.11197e-01,-2.76598e-02,-3.24084e-02,
-1.99498e-01,3.98664e-01,3.76876e-01,1.80072e-01,-1.55806e+00,-1.52390e-02,-4.45985e-02,1.88668e-01,-3.72405e-01,-2.88750e+00,1.61308e+00,-8.38201e-01,-6.68768e-01,7.09930e-01,-2.31384e-01,-9.18202e-01,2.74198e-02,-1.53021e+00,-1.64346e-02,-7.92626e-01,6.10949e-01,-3.67551e-01,-2.50456e-01,3.69853e-02,-2.30227e-01,1.08934e+00,8.36427e-03,5.79620e-01,-2.59729e-02,4.91394e-01,7.80621e-02,5.55600e-02,-4.03294e+00,-1.11631e+00,-2.00569e-01,-3.81385e-01,3.27993e-01,-3.91681e-02,-1.33512e+00,-2.58582e-02,-1.16115e-02,4.04605e-01,1.02403e+00,-1.72696e+00,-2.82804e-02,6.97980e-01,-1.05861e+00,-2.69793e+00,1.30197e-02,3.47764e-02,
-3.29594e+00,-1.47202e+00,5.41450e-02,-1.20400e-01,-6.65283e-01,-2.75708e-02,1.54006e-02,-1.24718e-01,1.72975e-01,1.72340e+00,2.11593e-01,6.96286e-02,1.36639e+00,1.17812e-01,1.16419e-01,9.17047e-01,2.60581e-02,-9.05455e-01,-3.23778e-02,6.90262e-02,-2.26641e-01,-9.32100e-02,1.78424e-02,-1.04381e-02,6.70716e-01,-9.41932e-01,-5.08705e-02,-9.56138e-01,-2.51114e-02,-1.01289e-02,2.30481e-01,-1.96640e-02,-3.21582e+00,-3.45116e+00,-4.70548e-01,2.99159e-01,-1.47724e+00,2.86516e-02,-1.99242e+00,6.00495e-03,-2.41955e+00,1.29048e+00,-2.00238e+00,-1.22857e+00,-3.54770e-02,2.82389e-01,-2.11106e+00,6.94301e-01,1.91422e-02,-1.41897e-02,
6.16618e-01,-4.48015e-01,1.08590e+00,1.05353e+00,1.31949e+00,1.11571e-02,-1.25907e-02,-4.65623e-01,9.55609e-01,9.55971e-01,-9.45610e-01,-1.12452e+00,2.99311e-01,-1.02021e+00,-2.20507e-01,4.83011e-01,8.75074e-03,6.20875e-01,3.90598e-02,-5.53927e-01,-4.73701e-01,1.73136e-01,-6.47162e-02,6.60211e-02,-2.34695e-01,1.39207e+00,-4.23169e-02,8.38562e-01,3.58234e-02,8.53765e-01,1.54311e+00,-3.13751e-03,-1.07016e+00,1.94873e+00,1.04188e+00,9.23126e-01,3.41623e-01,-1.52771e-02,2.86296e-01,4.03826e-02,8.78215e-01,8.43613e-01,-9.29035e-01,-5.70835e-01,4.46680e-02,4.43015e-01,9.95123e-01,9.69957e-01,5.68488e-02,2.63524e-02,
7.60319e-01,-7.00144e-01,2.93709e-01,6.76706e-02,8.57313e-01,-7.81784e-03,-1.76418e-02,2.00529e-01,4.69598e-01,-2.63947e-01,-1.23358e-02,7.30338e-01,6.27756e-01,-4.15815e-02,9.16121e-02,-3.67926e-01,3.07242e-02,1.11173e-02,-1.33636e-02,-1.96545e+00,-1.96161e-01,9.30376e-01,2.11370e-01,-3.94623e-03,-6.28917e-01,-2.81346e-01,1.27774e-02,9.18839e-01,-2.96246e-02,1.45188e-01,-3.63096e-01,-1.69215e-02,8.99781e-01,-1.70161e-01,8.51707e-01,-9.00551e-01,2.63660e-01,-2.09423e-02,-1.95616e-01,9.92803e-03,1.08584e+00,-1.06251e+00,-2.94534e+00,5.51689e-01,1.00884e-02,3.98042e-01,-6.01553e-01,1.35607e+00,-9.68999e-03,1.96254e-02,
2.39513e-01,2.42443e-01,5.62222e-01,1.77334e+00,-3.55009e+00,-4.27452e-02,-6.98651e-03,-3.27679e-01,1.97374e-01,4.10337e-02,-7.53401e-01,1.18309e+00,-1.89604e+00,-1.74112e+00,-5.18081e-01,-1.34632e+00,-1.65608e-02,-5.86127e+00,6.27463e-03,9.31198e-01,-7.10347e-01,-2.07244e+00,9.03537e-01,-3.87213e-02,1.88927e-02,-2.80048e+00,-2.33368e-02,-2.39029e+00,-2.04384e-02,-1.63829e+00,-1.29472e+00,-1.16998e-02,9.74907e-01,-1.38171e+00,2.57659e-01,-9.05748e-02,1.98668e-01,-3.38807e-02,3.10662e-01,3.08063e-02,2.23816e+00,-3.22220e-01,-2.00106e+00,-1.87535e-01,8.83059e-03,-2.36197e-01,7.39049e-01,-6.59527e-01,-2.12400e-02,-1.92827e-02,
7.14137e-01,-1.17428e-01,4.57052e-01,1.92094e-01,1.34157e+00,-1.88620e-03,-2.85999e-02,-4.10150e-01,-5.66091e-01,-1.64181e-01,1.43821e-01,-1.35564e+00,2.83145e+00,7.86272e-01,8.89177e-01,1.38931e+00,1.31124e-02,6.21879e-01,9.93497e-03,-1.69224e-01,-2.64465e-01,-6.48914e-01,1.54392e-02,2.67202e-02,9.33747e-02,9.00209e-01,2.43622e-03,1.01054e+00,2.29840e-02,6.95648e-01,1.52806e-01,-4.92908e-02,-2.91934e+00,1.17987e+00,3.84327e-01,-4.71182e-01,-2.33489e-01,1.98912e-02,-1.28062e-01,9.85178e-03,-3.74415e-01,1.24535e+00,7.38651e-01,-3.13287e-01,-2.40934e-02,-1.84110e-01,3.37125e-01,9.66727e-01,-4.87484e-02,3.42348e-02,
1.45879e-01,4.82857e-01,-2.20945e-01,1.51397e+00,-4.82806e-01,-1.05322e-02,4.46239e-02,-1.44123e-01,-3.83282e-01,4.28720e-01,-7.92373e-01,3.25913e-02,2.14679e+00,8.36563e-01,1.02259e+00,-2.68588e+00,-2.68735e-02,6.19837e-01,1.67882e-02,1.13428e+00,-6.95161e-01,-9.81478e-02,-4.95818e-01,-4.52988e-02,4.43975e-01,2.75424e-01,-2.04270e-02,-1.41198e+00,1.79551e-03,2.36258e-01,2.81608e-01,-3.81911e-02,-1.92460e+00,-1.82409e+00,-3.48751e-01,-6.45448e-01,-2.39349e-01,-4.64065e-02,-3.83012e-01,2.40261e-02,-1.00678e+00,2.02534e-01,1.16919e+00,1.02733e-01,-3.96788e-02,-9.48878e-02,7.54977e-01,1.64365e-01,4.55117e-02,-1.95561e-02,
2.73920e-01,6.71488e-01,5.79172e-01,4.49768e-01,1.00678e-02,-3.06042e-02,-3.39384e-02,-9.98748e-02,-6.55036e-01,-5.09024e-01,1.11429e+00,1.24162e-02,2.04288e+00,1.18973e+00,-1.04622e-01,-4.85335e-01,4.55835e-03,-1.36008e+00,-2.57490e-02,1.25914e+00,-8.02289e-02,-4.74517e-01,2.66883e-01,3.14863e-03,5.34189e-01,1.61259e+00,-8.42854e-03,-2.37863e-01,4.35905e-02,-1.59483e-01,6.38467e-01,1.93173e-02,7.52441e-01,1.17686e+00,9.14512e-01,8.62448e-01,1.71876e-03,3.30458e-02,1.68860e-01,1.27922e-02,-2.53302e-01,4.45514e-01,4.80390e-01,1.36338e+00,1.86795e-02,-4.15954e-01,3.00033e-01,1.63730e+00,2.29996e-02,-4.85313e-02,
2.33583e-01,5.21673e-01,-1.86386e+00,-7.18640e-01,1.81254e+00,-1.71827e-02,7.15933e-03,1.04594e-01,3.44466e-01,5.33221e-01,-1.07118e+00,-1.43058e-01,2.32439e-01,1.21514e+00,2.64214e-01,-7.93417e-02,-3.48151e-02,6.26671e-01,1.61037e-02,5.43314e-01,6.51457e-02,-1.00121e+00,-5.10514e-02,2.50431e-02,-2.65099e-01,-7.80904e-01,3.27691e-02,-1.50242e+00,1.81848e-02,-4.45545e-01,1.73093e-01,4.34005e-02,-2.09862e+00,3.10092e+00,-1.50129e-01,2.70773e-01,-2.59101e-01,-2.94411e-03,-4.70630e-01,-2.44128e-02,-7.24386e-05,3.61111e-01,-2.85916e-01,-2.71745e-02,-4.17455e-02,-1.60374e-01,-5.40551e-01,-9.74473e-01,4.65819e-02,-3.00911e-02,
3.36103e-01,-1.48212e+00,1.80770e-02,5.58143e-01,8.88386e-01,1.03196e-02,7.44616e-04,-2.99624e-01,9.67055e-01,-4.01368e-01,-3.49216e+00,5.06728e-01,1.37842e+00,-1.02107e+00,-1.48583e+00,-3.89772e-01,-7.10999e-03,-5.32300e-01,2.00143e-02,6.77576e-01,2.57887e-01,1.36515e-01,2.01978e-01,-1.02250e-02,8.42616e-01,7.90058e-01,-3.60692e-02,-1.25483e-01,-3.19160e-02,3.14331e-01,3.89638e-01,-8.30745e-03,-3.91818e+00,-1.30850e+00,-8.37169e-01,-2.05180e+00,3.21303e-01,2.77858e-03,-5.84397e-01,1.11816e-03,7.78029e-01,8.33884e-01,1.54568e+00,4.20911e-01,3.37706e-02,1.19810e-01,-6.63251e-02,1.30113e+00,-3.13223e-02,-3.59495e-02,
-3.16533e-01,-1.00517e-01,-1.24254e-01,2.99927e-01,-6.96271e-01,-2.13523e-03,1.22742e-02,1.31251e-02,8.73191e-01,2.35986e-01,1.86523e-01,9.94708e-02,5.72604e-01,6.24567e-01,2.79712e-01,2.81216e-01,-4.05521e-02,-2.64468e-01,-4.70642e-02,1.23570e-01,-1.68132e-01,-1.34808e-01,-1.17125e-01,-1.72241e-03,-4.26705e-02,9.11715e-01,9.12554e-03,5.90519e-01,-5.27592e-02,-8.22492e-03,-2.08637e-01,-1.06216e-02,1.87942e-02,7.99834e-01,9.35659e-02,-6.56932e-02,-2.11853e-02,-1.97442e-02,1.04324e-01,1.30776e-03,-1.29998e-01,-3.73532e-01,-6.97544e-02,2.91935e-01,9.09028e-03,-3.89679e-01,-5.23840e-01,-1.60624e-01,5.99942e-02,1.87351e-03,
8.14491e-01,-1.61569e-01,7.41587e-02,1.06039e+00,1.75140e+00,-3.09325e-02,2.02541e-02,1.69341e-01,6.69325e-01,7.93331e-01,-5.09964e-01,-1.19329e-01,1.16425e+00,1.05965e-01,5.27094e-01,-6.17982e-02,-2.53222e-02,-2.33344e-01,2.31599e-02,4.41573e-01,-1.91165e-02,-3.33733e-01,3.55083e-01,-1.82369e-02,-8.57347e-02,-5.59201e-01,-3.74793e-02,-7.62530e-01,-1.17657e-02,5.26835e-01,7.35649e-01,4.07804e-03,-1.46364e+00,1.87541e-01,-3.50637e-02,8.65171e-01,-2.49419e-01,-4.05490e-04,5.29913e-01,2.47706e-02,4.94256e-01,6.00298e-01,1.59301e+00,-5.35047e-01,-1.18263e-02,-7.23120e-01,1.14467e-01,1.02506e+00,-4.66010e-02,5.48001e-02,
8.04293e-01,-9.98513e-01,2.38611e-01,-2.75687e+00,-3.28093e+00,-2.69772e-02,-3.22743e-02,2.93487e-01,-9.38456e-01,-6.39149e-01,4.82871e-01,3.38740e-01,5.65270e-01,-5.23096e-01,-4.10085e-01,-5.99162e-01,3.67879e-02,-1.42973e+00,-3.73990e-02,2.11013e-01,3.97466e-01,6.30904e-01,-1.49418e+00,2.38540e-04,-3.13781e-01,-8.87305e-01,-3.73958e-02,2.53886e-01,4.17380e-02,-4.79794e-01,-1.31331e+00,2.46408e-02,2.13824e-01,5.66853e-01,3.06415e-01,-1.94504e+00,3.86272e-02,-2.26281e-03,3.35607e-01,8.81805e-03,-4.97260e-01,-1.04347e+00,1.01152e+00,-9.03070e-03,-8.98425e-03,-8.04794e-01,-7.63943e-02,6.48373e-01,3.88404e-02,-3.33309e-02,
-7.07218e-01,1.05214e+00,1.04922e+00,1.20905e+00,3.67919e+00,-2.02219e-03,-1.66256e-02,6.02452e-02,-1.03362e+00,1.04574e-01,7.00971e-01,5.38405e-01,-1.89662e+00,9.52483e-01,6.81280e-01,1.87845e+00,1.55983e-02,1.20526e+00,-2.04052e-02,-1.26206e-01,-1.19755e+00,1.79777e-01,-3.45086e-01,5.52203e-03,3.63048e-02,-1.25583e+00,-3.17943e-02,3.03698e-01,-4.23640e-02,7.26689e-01,1.21210e+00,4.93518e-02,-9.13336e-01,2.63188e+00,-9.57170e-01,7.38764e-01,4.78448e-01,-3.78260e-02,1.28412e-01,-3.80721e-02,-1.77920e+00,-5.86317e-01,2.72162e-01,1.54465e+00,-2.24128e-03,-8.83349e-01,9.41212e-01,6.96820e-01,-1.24442e-02,1.03848e-02,
-7.51815e-01,-4.10103e-01,-5.82940e-04,6.44650e-01,1.56352e+00,-9.58719e-03,-2.31432e-02,4.04043e-01,2.33669e-01,7.42328e-02,5.19727e-01,1.71185e-01,1.13892e+00,-3.28868e-03,3.60139e-01,8.16630e-01,1.51195e-02,-3.05730e-01,-2.11310e-02,1.14880e-01,-5.04442e-01,-5.04259e-01,3.03412e-01,-1.36454e-02,1.39926e-01,5.43702e-01,1.51024e-02,8.65560e-01,-8.68344e-03,1.32915e-01,-5.33235e-01,1.70573e-02,6.06867e-01,-6.38974e-01,5.58887e-01,-7.04910e-01,-3.99293e-01,4.85476e-02,3.88749e-01,8.96143e-03,6.21101e-01,3.16000e-01,7.56410e-01,3.66926e-01,4.50850e-02,-4.98987e-01,-2.50037e-01,7.13230e-01,-2.72073e-02,-3.40043e-02,
-7.44482e-01,1.08039e+00,-3.45969e-01,4.55203e-01,-6.24787e-01,-5.66816e-02,5.18188e-02,1.42737e-02,-4.26054e-01,-1.05066e-01,-1.49753e-01,4.84566e-01,-8.81022e-01,-6.22405e-01,-1.67261e-01,-4.05984e-04,-4.27474e-02,-3.83549e-01,2.66682e-02,-6.32450e-02,1.97922e-01,2.81298e-01,-1.32401e-01,-3.33538e-02,3.93485e-01,9.86050e-01,-1.19086e-02,8.20328e-02,-3.04352e-02,1.61451e-02,3.55729e-01,5.78521e-04,5.95141e-01,5.98018e-02,-1.24268e-01,-3.85593e-02,1.52413e-02,-1.13400e-02,-3.88485e-02,-3.17087e-02,-7.34593e-01,-3.83095e-01,-1.47747e-01,-4.18456e-01,-1.10796e-02,-8.44801e-03,-2.17791e-01,-1.49767e-01,-1.38829e-02,1.24600e-02,
-3.19996e-02,4.58185e-01,4.75948e-01,-4.54933e-02,1.23184e+00,5.00679e-02,-7.87556e-03,-5.47368e-02,-2.88345e-01,1.22128e-01,1.62888e-01,1.85398e-02,-6.42795e-01,5.38342e-01,2.96430e-01,9.38174e-02,-4.11893e-02,-1.26587e-01,-4.71042e-02,-6.45726e-01,-1.84376e-01,1.51018e-03,4.34471e-01,4.35155e-02,3.97464e-01,3.45121e-01,-5.93466e-04,7.33843e-01,-3.71243e-02,-2.13612e-01,-1.02504e-01,-4.15830e-02,7.57465e-01,1.52407e+00,-3.38232e-01,1.83122e-01,1.29705e-01,1.79307e-02,5.18783e-01,-2.35975e-02,4.01105e-01,-3.63851e-02,-3.51934e-01,-1.28593e-01,-2.22441e-02,-1.58664e-01,3.70584e-01,-2.25646e-02,4.24239e-02,-4.40389e-02,
2.61149e+00,5.08315e-01,1.47633e+00,1.86326e+00,6.61108e-01,1.22416e-02,-1.75526e-02,1.44035e+00,1.71107e+00,5.52779e-01,9.80359e-01,1.30250e+00,1.88886e+00,8.61618e-01,1.30723e+00,3.46254e+00,-2.75459e-02,1.69436e+00,-4.62257e-02,2.34518e+00,1.23228e+00,1.68086e+00,1.28038e+00,-2.75350e-02,8.10294e-01,2.64980e+00,3.73682e-02,2.82809e+00,5.28969e-03,9.10724e-01,1.81767e+00,1.92228e-02,2.95828e+00,2.92774e+00,1.33182e+00,-5.34893e-01,1.39481e+00,6.73830e-03,2.13849e+00,-3.49924e-02,2.21950e+00,1.42163e+00,1.87426e+00,1.22885e+00,-4.22304e-02,1.68697e+00,1.28809e+00,1.66183e+00,-1.41459e-02,2.76310e-02,
1.70703e-01,-1.95140e+00,8.34732e-01,1.95943e+00,-6.69165e-01,2.45588e-02,2.91188e-02,-3.95369e-01,8.28256e-01,1.68924e+00,9.48896e-01,6.46825e-01,1.98702e+00,1.26120e+00,2.13355e-01,-5.43628e-01,-5.06187e-03,-1.24050e+00,4.75961e-02,-8.47219e-02,-1.48005e+00,-6.99852e-02,-6.14837e-01,2.48097e-02,5.09449e-01,1.74350e-01,3.81755e-02,-1.56344e-01,-2.67100e-02,-3.48595e-01,8.32150e-01,1.54493e-02,1.75615e+00,2.19499e+00,2.82353e-01,-1.00975e+00,-6.29827e-01,-6.91932e-03,-4.01827e-02,-3.08926e-05,1.03922e+00,1.19754e+00,1.74879e+00,1.92880e-01,2.21588e-02,2.32844e-01,-1.19593e+00,-2.89690e+00,2.46730e-02,-1.74360e-02,
-7.38559e-02,1.29469e+00,-4.61304e-02,-3.88801e+00,-5.87521e+00,-1.62510e-03,-5.76375e-03,-1.95417e-01,7.85205e-01,-2.68750e-02,2.00586e-01,-2.08371e-01,3.16360e+00,2.62557e-01,-1.03716e+00,1.13137e+00,3.57736e-02,6.64502e-02,-4.80385e-02,6.52528e-01,-1.98489e-01,-9.71123e-01,-1.22771e+00,4.64428e-02,2.38433e-01,1.26703e+00,-2.34791e-02,-2.45970e-01,8.40766e-03,5.21599e-01,1.23842e+00,-4.74286e-02,-2.28891e-01,1.42418e+00,3.08245e-01,-4.53240e-02,1.45914e-01,-2.77890e-02,1.71365e-01,9.62851e-03,8.46880e-01,6.16729e-01,-6.00963e-01,1.79714e+00,-7.85506e-03,-5.02439e-01,6.18496e-01,2.04178e+00,-2.26850e-02,1.57540e-02,
5.76073e-01,1.39159e+00,6.63381e-01,-3.54514e-02,-3.73574e-01,-2.53309e-02,-6.18308e-03,-1.16588e+00,2.06008e-01,9.92855e-01,1.91446e-01,-2.33267e-01,2.67617e-01,1.11109e+00,-4.73915e-01,6.08577e-01,4.84161e-02,3.69135e-01,-4.60704e-03,-3.42608e-01,-1.82909e-01,1.22225e-01,-5.94631e-02,2.80079e-03,2.17953e-01,-1.09577e-02,2.31739e-02,2.26548e-01,9.28809e-03,-3.35967e-01,8.92306e-02,-4.12560e-02,4.60108e-01,1.47072e+00,3.06167e-01,4.13867e-01,-3.37147e-02,-3.28149e-02,3.86083e-03,1.66596e-02,-2.16318e-01,-4.76884e-01,4.70133e-03,2.14081e-01,-3.49561e-02,3.32815e-01,3.74437e-01,-1.00956e-01,-3.08672e-02,8.24236e-03,
-8.51690e-02,-5.48193e-01,-3.45324e-01,4.08489e-01,-6.92723e-01,-8.85984e-04,-3.31509e-02,5.05740e-01,-2.78025e-01,9.22274e-01,3.47835e-01,6.38038e-02,-1.47883e-01,5.15664e-01,-2.32864e-02,-1.06955e+00,7.23731e-03,9.10693e-01,-5.46329e-02,7.82106e-01,-6.55230e-01,4.22097e-01,-1.11937e+00,1.63810e-02,-9.16627e-01,-7.38932e-01,-4.43704e-02,1.36036e+00,-3.10134e-02,-4.21264e-01,-1.07967e-01,4.96302e-02,-4.43181e+00,-7.95598e-01,8.70672e-01,-1.26127e+00,8.41201e-01,-4.31753e-02,7.32780e-02,1.10467e-02,-8.16724e-01,-9.36296e-01,-3.86079e-01,-5.41956e-01,2.97134e-02,8.94260e-01,6.55169e-02,1.54238e+00,2.08425e-02,-3.88827e-02,
-7.99273e-01,1.14364e+00,1.83837e+00,7.79460e-01,6.30515e-01,-1.10325e-02,-4.15168e-02,-1.89880e-01,8.08730e-01,-5.00650e+00,-4.13645e-01,5.06312e-01,2.42958e+00,1.70110e+00,1.24642e+00,1.66876e+00,-5.43023e-03,1.14581e+00,2.68909e-02,7.31721e-01,-7.14455e-01,-1.92819e+00,9.62326e-01,-2.31501e-02,8.03175e-01,1.59326e+00,5.12915e-02,8.78823e-01,-3.03868e-02,1.23479e+00,1.45583e+00,2.07281e-03,-7.76391e-01,1.58778e+00,2.10078e+00,-8.36085e-01,1.05173e+00,-2.18552e-02,-1.56680e+00,2.89520e-02,1.23561e+00,1.38033e+00,1.07883e-01,-1.12195e+00,4.63122e-02,-1.21925e+00,1.54928e+00,-1.64330e-01,-2.62316e-02,1.02355e-04,
-4.02056e-01,2.24390e-01,5.20730e-01,6.13808e-01,6.98763e-01,-6.00920e-03,-2.55785e-02,9.10415e-02,-1.17546e-01,2.82481e-01,-1.99381e+00,-6.41347e-01,-1.16913e+00,-2.44914e-01,-3.40851e-01,3.08142e-01,-9.99933e-03,-1.82386e+00,6.59843e-03,-6.86772e-02,9.56254e-02,-3.59399e-01,2.77141e-01,3.92353e-02,-3.66489e-01,-1.68716e+00,-3.97927e-02,3.77189e-01,3.87759e-02,-1.37430e-01,2.46114e-03,-2.31916e-02,1.53114e+00,-1.16489e+00,-7.53406e-03,2.68905e-01,1.88818e-01,3.59181e-02,-2.89949e-01,3.07465e-03,-6.57571e-01,2.53971e-01,1.03321e-01,-2.22009e+00,2.58225e-02,-3.09508e-01,-5.33239e-01,2.69766e-01,3.43639e-02,5.81949e-02,
-1.03920e-01,-2.42854e-01,2.06245e-01,8.04917e-01,1.60780e-01,8.78454e-03,4.26829e-02,-7.34169e-01,2.68471e-01,-2.06422e-01,6.02064e-01,8.70145e-02,-5.71217e-01,3.61513e-01,2.36200e-02,2.22881e-01,3.50366e-03,4.18956e-03,-4.39615e-02,1.06408e-01,-3.39594e-01,-7.72062e-02,-2.97635e-01,-2.77807e-02,7.86686e-02,-5.39042e-02,-3.49752e-02,1.87351e-01,3.10181e-02,-1.62845e-01,1.20056e-01,-9.92223e-03,4.73365e-02,4.04682e-01,5.10598e-01,1.29299e-01,-3.33396e-02,5.02040e-02,2.22479e-01,-2.00453e-02,-2.82051e-02,-4.07112e-01,-1.06243e-02,3.89677e-02,2.52564e-02,-5.13084e-02,-2.78226e-02,-2.28401e-02,2.99201e-02,-2.08522e-02,
4.03709e-01,4.72148e-01,-5.13597e-02,-4.20099e-01,1.67501e-01,2.47614e-02,5.33492e-02,8.42415e-03,3.00405e-01,-7.68484e-01,-1.63361e+00,5.20812e-01,1.07921e+00,-4.74809e-01,-2.34429e-01,-7.30245e-01,4.67512e-02,-8.11294e+00,1.02662e-02,7.54419e-01,2.25207e-01,8.58756e-03,1.98310e-01,5.53248e-02,-5.67461e-01,1.77015e+00,-2.14581e-02,-1.05962e+00,1.87179e-02,3.70215e-01,6.89951e-01,3.85246e-02,1.19694e+00,-1.23200e+00,-6.86700e-01,6.25523e-01,4.60163e-01,3.83481e-02,7.01814e-01,1.13952e-02,8.97835e-01,1.21881e+00,-1.56297e+00,-2.89489e-01,9.93165e-03,-2.75186e-01,-3.81790e-02,6.13931e-02,-4.75138e-03,4.30621e-02,
-7.83411e-01,-4.42915e-02,1.72312e-01,8.28932e-02,2.46331e-01,-1.38829e-04,4.93466e-02,-1.29043e-01,3.64332e-01,-5.78971e-01,-3.12350e-01,1.65716e-01,7.00757e-01,3.72289e-01,2.29976e-01,9.62226e-01,3.10818e-02,-2.15557e-01,4.23058e-02,-3.30927e-01,-1.99904e-01,-7.27039e-02,3.27590e-01,-3.85171e-02,6.17459e-01,7.18123e-02,4.62923e-02,1.01895e-01,3.05541e-02,-3.02282e-01,-3.80295e-02,1.10744e-02,-2.98316e-01,2.68008e-02,-9.90244e-01,-1.99492e-01,1.95448e-01,1.63034e-02,-5.89373e-03,-1.59466e-02,-2.46087e-01,-4.74252e-01,7.04805e-01,3.80845e-01,1.27963e-02,-1.56342e-01,-8.25480e-02,-2.17511e-01,3.96103e-02,2.17657e-02,
-1.90895e+00,-4.51391e-01,1.18258e-01,9.58880e-01,-2.82710e+00,-1.86826e-02,2.77826e-02,-4.14010e-02,-5.32824e-02,-7.73139e-01,1.49313e+00,8.18982e-01,-9.72189e-01,1.49782e+00,-5.92495e-03,2.36768e-01,1.90591e-02,-4.42893e+00,-3.20830e-02,-3.48473e-01,2.96881e-01,-2.40822e-01,-6.19870e-01,-3.46060e-02,1.48764e-02,7.98642e-01,4.69390e-02,4.91800e-01,-5.27909e-02,5.14081e-01,7.10138e-01,-4.52117e-02,-1.17955e+00,-7.02178e-01,-1.74081e+00,-3.01030e-01,-1.96906e+00,2.83356e-02,-1.31078e-02,-4.17561e-02,-1.31785e+00,5.23216e-01,-1.72814e-01,-4.40829e-01,-1.51464e-02,-4.41529e-01,1.90757e-01,7.87095e-01,-2.83093e-02,3.23845e-02,
1.87854e-01,1.14221e-01,3.10888e-01,1.05248e+00,-2.02917e-01,9.15000e-03,3.62809e-03,1.45899e-01,-3.26483e-02,-4.77168e-01,-1.04677e+00,4.99994e-01,-1.87982e+00,5.64879e-01,5.95732e-01,2.66556e-01,-2.86175e-02,3.23635e-01,3.53662e-02,-8.64836e-01,-2.81741e-01,-4.45890e-02,2.44254e-01,2.58953e-02,-5.69566e-01,4.30969e-01,2.96325e-02,4.03802e-01,3.53662e-02,1.88210e-01,-1.73096e-01,2.69258e-02,9.70372e-01,2.14379e-01,4.04758e-02,-2.98257e-01,-4.32997e-01,-1.07451e-02,-1.65046e-01,3.65169e-02,6.00312e-01,-3.63317e-02,-3.20276e-01,-3.87780e-01,-4.74852e-02,-1.38031e+00,5.92653e-02,3.90271e-01,1.00632e-02,-1.54285e-03,
-5.46030e-02,
-1.51025e+00,
-1.24211e+00,
-1.37917e+00,
-2.25303e+00,
-6.69561e-02,
3.41735e-02,
1.93807e-01,
-3.10097e+00,
-3.27038e-01,
-9.39108e-01,
-4.09355e-01,
-1.86805e+00,
8.98459e-01,
-3.35515e-01,
-1.79279e-01,
6.54449e-01,
4.23739e-01,
5.57493e-01,
-1.45496e-01,
6.37911e-01,
4.12578e-01,
2.52634e-01,
8.49312e-01,
-5.18522e-01,
1.80665e-01,
-4.76061e-01,
1.97778e-01,
-2.60480e+00,
3.15358e-01,
-1.60041e+00,
3.36000e-01,
-2.20170e+00,
9.99148e-02,
-2.75999e+00,
-2.43119e-02,
6.51677e-01,
3.19891e-01,
2.00331e+00,
-9.24288e-01,
-1.59714e+00,
5.24627e-01,
-1.27813e+00,
-3.45980e+00,
3.77722e-01,
9.59091e-01,
-2.12982e+00,
8.33069e-02,
-8.32855e-01,
-5.69558e-01,
-1.82801e-01,7.48331e-01,8.23631e-01,-2.12987e-01,-4.04851e-01,1.81182e+00,-2.11777e-01,9.23018e-01,-1.66670e-01,-1.08625e+00,-5.35862e+00,-2.38008e-02,-3.45576e-01,-5.46717e-03,2.73019e+00,2.81671e-02,-8.10345e-01,2.87437e+00,-2.24083e+00,-1.82672e+00,-9.15843e-01,3.42728e-01,-1.13691e-01,4.43482e+00,-8.66677e-01,-2.35408e+00,-2.05750e+00,-2.92922e-01,-3.12250e-02,1.00737e-01,-1.36833e+00,-4.91548e+00,-1.22550e-02,-2.36811e-01,1.16549e+00,-1.60505e-01,-2.97248e+00,1.06750e+00,1.18915e-01,-4.33890e-02,7.08669e-01,-9.74830e-01,-7.10102e-01,-1.99822e+00,1.18345e+00,1.68013e+00,-5.39919e-02,-8.19503e-01,1.15377e+00,-1.53419e-01,
4.34654e-01,-2.32210e-01,7.45704e-01,-1.07619e-02,-2.21391e-02,-8.13829e-01,1.21393e+00,-1.69558e-01,6.25877e-01,-1.60823e-01,2.60473e+00,-3.30452e-02,8.55971e-01,-2.16704e-02,-1.65733e+00,2.09885e-01,-8.28470e-02,1.93324e+00,-6.36062e-01,2.46982e-01,-2.52633e-01,5.87664e-01,4.71367e-01,5.78761e-01,-3.50414e-01,-8.06326e-03,1.03353e+00,3.18296e-01,-8.18952e-01,2.46423e+00,5.10043e-01,5.53146e-01,7.73465e-01,6.75464e-01,-6.92427e-02,4.92876e-01,-2.51947e+00,6.41011e-01,5.46336e-02,5.40397e-01,4.47055e-02,-1.45129e+00,9.51365e-01,-4.70134e-01,2.71135e-01,-7.01124e-01,-1.10664e+00,-1.16304e+00,-1.21650e+00,-1.03334e+00,
2.52948e-01,-6.90211e+00,3.46200e-01,1.53081e+00,-1.70770e-01,-1.09439e+00,-1.49698e+00,-6.48795e-01,3.67778e-01,-9.12240e-03,-1.09548e+00,4.55395e-02,7.20863e-01,4.29776e-02,-3.05898e+00,3.33906e-01,1.54974e+00,-1.97039e+00,-1.02821e+00,-2.45072e+00,6.35690e-01,-1.96174e+00,-1.71943e+00,-6.53517e+00,-5.51971e-01,6.04286e-02,-1.98263e+00,8.23326e-01,-3.87164e+00,9.43037e-01,1.08646e+00,2.39100e+00,-1.46264e+00,-5.73166e-01,-1.94428e+00,2.59789e-01,3.01430e-01,1.15693e+00,4.44811e-01,-2.14842e+00,-1.04796e+00,-2.45987e+00,2.87146e-01,4.95796e-01,1.42280e+00,-3.03519e+00,-2.49704e-02,9.08567e-01,-1.05668e+00,-2.89598e-01,
-5.42266e-02,-1.83739e+00,1.29104e+00,-1.22288e-01,2.25501e-01,-9.50901e-01,1.52589e-01,-6.05122e-01,3.82718e-01,1.33622e-01,-7.63687e-01,-2.16973e-02,2.54208e-01,2.79720e-02,-1.38837e-01,3.20197e-01,4.70778e-01,-6.21375e-01,9.14763e-01,-7.19315e-01,5.14412e-01,3.67641e-01,1.62130e+00,-3.00996e-01,2.85442e-01,2.27302e-02,1.26170e+00,3.12339e-01,2.17729e-01,-1.55899e-01,-3.74119e-01,1.01276e+00,-1.70857e-01,-7.70076e-01,9.11066e-01,-7.80923e-02,4.01593e-01,3.46349e-02,7.65393e-01,-5.66359e-02,-1.48495e-01,-5.63630e-01,-7.55591e-01,7.81827e-01,9.80746e-02,1.58208e+00,-4.81760e-01,1.01954e+00,2.41396e-01,-7.82377e-02,
-1.50696e-02,-7.02541e-01,1.33475e+00,2.04250e-01,3.73689e-01,3.06874e-01,4.87429e-01,-2.74697e-01,-1.42793e-01,-1.23872e-01,1.29501e+00,4.32741e-02,-4.01106e-01,-4.84950e-02,-8.27622e-01,-1.10052e+00,1.01350e+00,-7.34719e-01,8.48757e-02,3.55206e-01,-4.63308e-02,2.57139e-01,1.03803e+00,5.12187e-01,-1.57534e-02,6.80786e-01,1.87489e+00,-9.12976e-02,-1.93800e+00,1.00115e+00,1.78333e-01,1.48090e+00,2.63182e-01,-9.59240e-01,-3.89033e-01,8.86183e-03,7.52914e-01,-1.69510e+00,1.02459e+00,5.31813e-01,4.10205e-01,-7.03563e-01,-1.45356e-01,-5.86192e-01,8.18110e-01,-2.20934e+00,3.85187e-01,3.71256e-02,6.35397e-01,2.60251e-02,
-6.36567e-02,2.33014e-02,5.43569e-03,2.98151e-02,-5.30091e-02,4.53891e-03,-1.50442e-02,-4.82807e-03,-1.16689e-02,1.26467e-02,-1.89240e-02,2.83561e-02,6.64825e-04,-2.27679e-02,-3.73926e-02,-5.47499e-02,-3.64178e-02,-2.53695e-03,-1.38951e-02,9.27273e-03,2.97882e-02,7.60551e-03,-3.73400e-02,-4.32519e-02,-2.43677e-02,4.29776e-02,-4.31465e-02,-1.66731e-02,-5.85018e-02,1.04113e-02,-1.32354e-02,-4.73092e-02,-5.30790e-03,9.89609e-04,7.86844e-03,-6.77308e-02,3.74177e-02,-4.15327e-02,-1.41207e-02,1.42890e-02,-2.48383e-06,-2.38355e-02,2.10658e-02,-5.81679e-02,-2.47103e-02,3.05438e-02,-4.62946e-02,1.00457e-02,-7.33385e-02,-7.68904e-03,
-4.84582e-02,-4.09222e-02,-8.19554e-03,4.35162e-02,-1.49728e-02,-5.07654e-02,1.73670e-02,-9.16365e-03,-3.07071e-02,-1.75517e-02,2.69752e-02,2.20993e-02,-3.25849e-02,-2.49695e-03,3.76129e-02,-5.12259e-02,2.90685e-02,-4.79274e-02,1.74025e-02,1.26207e-02,1.19573e-02,-4.23834e-02,-1.73827e-02,-9.29888e-03,1.07413e-02,-1.34552e-02,-8.29393e-03,1.01717e-02,1.91157e-04,-2.29022e-02,-1.36895e-02,-4.50869e-02,3.02246e-02,-1.07734e-02,-1.28516e-02,-1.59856e-02,2.63588e-02,3.41987e-02,2.91697e-02,-3.94807e-02,2.06452e-03,-8.98880e-03,-3.05823e-02,-2.39706e-02,1.91511e-04,-3.13010e-02,2.03045e-02,-2.66342e-02,-1.78971e-02,-5.55694e-02,
1.73083e+00,-1.20688e-01,3.59118e-01,-6.36474e-02,-2.82425e-02,1.68122e-02,5.19140e-01,-5.60945e-02,7.52716e-01,-9.60624e-02,2.54308e-01,-1.06607e-02,1.00494e-02,3.29692e-02,-7.46536e-02,5.76731e-01,-4.73971e-01,5.39040e-01,5.71902e-01,-6.81247e-02,3.19007e-01,-2.12205e-01,-1.24605e-02,1.27706e+00,5.20980e-01,1.96824e-01,-8.18873e-01,3.72745e-01,2.95750e-01,-5.04039e-01,4.77382e-01,2.77740e-01,-6.90141e-02,2.79387e-01,4.07603e-01,1.81296e+00,-1.13530e-01,5.43168e-01,-1.41966e-01,8.53723e-01,-8.82594e-02,-4.12549e-01,-4.27015e-02,7.43586e-02,5.73496e-01,5.28873e-01,6.22386e-01,6.05174e-01,2.51275e-01,-2.12635e-01,
3.86441e-01,-4.86063e+00,3.23739e-01,-1.36403e-01,1.77885e+00,-1.26633e-01,-7.83047e-01,1.57512e-01,-2.00354e-01,9.32809e-02,1.57531e+00,1.20255e-02,6.47504e-01,-1.01621e-02,2.55472e-02,-5.34373e-01,3.97057e-01,4.82229e-01,3.19707e-01,1.26197e+00,1.26353e+00,-4.90946e-01,4.40902e-01,-5.86557e+00,1.08478e-01,8.36389e-01,-1.07355e+00,-1.48143e-01,-7.94716e-01,2.14498e-01,7.95797e-02,1.36915e+00,-3.98025e-01,3.78380e-01,4.77988e-01,3.78095e-01,4.53669e-01,1.03962e+00,-6.28301e-02,-1.31305e+00,-1.83774e-01,-1.53818e-01,7.09573e-01,-1.71250e-01,1.25401e+00,-3.16961e+00,-1.16766e-01,2.77273e-01,3.29845e-01,-5.19681e-01,
-1.19336e+00,9.19806e-01,-9.46341e-02,2.85612e-01,3.74321e-02,-2.16533e-01,4.35273e-01,-1.01949e-01,4.49438e-01,5.27560e-02,2.53961e-02,-4.63581e-02,-2.17779e-01,-3.62868e-02,-1.01725e-01,1.88355e-01,2.59417e-01,-5.03227e-01,-8.23596e-01,-2.52652e-01,-2.63996e-01,1.31600e-01,-1.06775e-01,2.05847e+00,-7.16222e-02,2.28317e-02,4.11289e-01,3.98000e-01,-1.18934e-01,1.59279e-01,8.86171e-02,-5.71462e-01,1.05710e+00,1.94402e-01,-5.17252e-01,-1.17020e+00,-6.31119e-02,3.78239e-01,9.13217e-01,1.09283e+00,5.47434e-01,-1.24715e-01,-2.28502e-01,-3.00815e-01,-3.51478e-01,-6.08455e-01,-4.67531e-01,-3.81162e-01,-3.02561e-01,-5.96779e-01,
5.51364e-01,-4.14770e+00,-1.11451e+00,-1.16263e+00,-9.48277e-01,1.28625e+00,-1.01567e+00,-1.20858e+00,-6.52699e-01,-7.45784e-01,2.47284e-01,-2.10993e-02,-3.18116e-01,-3.26950e-02,7.17900e-01,-1.21546e+00,5.03486e-01,1.19382e-01,1.40167e+00,4.90680e-01,-3.18156e-01,9.04915e-01,-9.16877e-01,5.08271e-01,4.29591e-01,-7.07553e-01,-2.10803e+00,8.05135e-01,-1.13698e-01,-1.47335e+00,2.51677e-01,-7.37716e-03,5.79157e-01,-1.68908e+00,5.13966e-02,5.09123e-01,5.11586e-01,1.83636e+00,3.79341e-01,8.10217e-03,-1.84316e-02,1.42249e+00,1.38869e-01,-3.26607e-01,-1.04449e-02,-6.31450e-01,2.68833e-01,3.33154e-01,8.16792e-01,4.98796e-02,
2.17010e-01,-6.02374e-01,1.02301e-01,5.93356e-01,-5.07175e-01,-5.40781e-01,8.05302e-02,2.46719e-02,2.28466e-01,-6.18253e-02,-1.57505e+00,4.52370e-02,5.95792e-01,1.81974e-02,2.06018e+00,4.92978e-01,-1.34952e+00,-3.18358e-02,-1.56588e+00,3.91860e-01,-5.13238e-01,-1.16361e+00,-5.90031e-01,3.85109e+00,6.57415e-01,-6.49269e-01,-1.76293e+00,7.21768e-02,-2.53192e+00,6.29907e-01,-2.70450e-01,4.10911e-01,3.71366e-01,-9.02283e-01,7.68167e-01,2.71360e-01,1.31479e+00,2.84258e-01,8.24993e-01,4.73768e-02,-3.18285e-01,-1.39683e+00,1.26838e-02,-1.54183e-01,1.82942e+00,-1.45233e-01,2.96193e-01,5.51814e-02,4.31912e-02,-2.11481e-01,
-3.24608e-01,5.93173e-02,-6.79939e-02,1.21749e-01,2.19131e-01,1.39172e-01,6.33675e-01,-1.46078e-01,9.37905e-01,3.64225e-01,-3.17307e-01,4.33354e-02,-7.84601e-01,-3.65061e-03,4.81179e-01,-2.46049e-01,-8.92642e-02,-2.46413e-01,2.48956e-01,1.03589e+00,-3.64550e-01,1.90369e-01,4.32276e-01,9.39092e-01,-2.15028e-01,3.40503e-01,5.95886e-01,1.34668e-01,4.80174e-01,2.75787e-02,-3.51759e-01,1.52074e-01,-1.06548e-01,-2.49638e-01,-3.12226e-01,-2.89007e-01,8.93365e-02,-2.23528e-01,5.26877e-02,4.45067e-01,-4.06475e-02,2.34824e-01,2.28104e-01,1.43306e-01,1.28663e+00,-1.32767e+00,-5.09929e-02,-1.22174e-01,5.38506e-01,-1.57047e-02,
3.54501e-01,-1.08643e+00,3.38528e-01,3.38954e-01,-3.38837e-01,4.12345e-01,-1.12851e+00,3.05250e-01,4.40807e-01,-1.05990e-01,1.06732e+00,-2.08853e-02,3.62338e-01,1.33447e-02,-1.43861e-01,6.20955e-01,5.70132e-01,3.63333e-01,6.63630e-01,-4.27679e-01,4.72854e-01,-3.44415e-02,5.12771e-01,-1.78560e+00,-1.25520e-01,-1.33405e+00,-1.95002e+00,8.32655e-01,-1.11440e+00,1.85961e-01,1.14511e+00,6.41564e-01,-3.02659e-01,-7.75482e-01,7.59086e-02,3.59931e-01,2.52281e-01,-1.67279e+00,1.07230e-01,-6.37306e-01,-4.90502e-02,-2.63660e-01,7.64680e-01,2.37838e-01,6.51602e-01,-7.27901e-01,-1.34757e+00,2.11435e-01,2.87724e-01,3.56238e-01,
1.90705e-01,-1.68273e-01,9.66234e-01,-1.13499e+00,2.89300e-01,-3.45273e+00,1.28488e-01,1.32315e+00,-3.66295e-02,-5.63364e-02,9.69033e-02,2.20769e-02,3.36280e-01,2.63492e-02,-2.95735e+00,-4.35116e-01,1.15148e+00,4.95194e-01,3.96323e-01,-4.04221e-01,3.94847e-01,4.96582e-01,-2.71023e+00,-9.14949e-01,-4.44217e-01,1.61017e+00,9.33294e-01,-1.09686e+00,-3.80480e-01,-3.76405e-01,8.59236e-01,-1.33547e+00,-6.78843e-01,-6.88783e-01,-1.02149e+00,2.21012e-01,8.19863e-01,-1.70677e+00,3.15149e-01,2.89681e-01,-9.25408e-01,4.79949e-01,7.59234e-02,8.50504e-02,6.30689e-01,3.09542e+00,-3.48876e-01,8.42066e-01,-3.48408e+00,-3.54676e-01,
2.56833e-01,2.93708e-01,1.02877e+00,5.64044e-01,8.20969e-02,2.34345e+00,-3.76753e-02,2.91213e-01,-6.36922e-01,4.32309e-02,4.82571e-01,3.33532e-02,-1.55948e+00,3.38157e-03,5.66333e-01,-3.90862e-01,-9.82136e-01,-2.01695e-01,-6.98453e-02,4.19137e-01,-4.30533e-01,-6.89265e-01,-9.76188e-01,-5.76213e-01,-1.58544e-01,1.66762e-01,-3.70236e-02,-3.85149e-01,2.83926e-01,-1.35365e-01,2.35879e-01,4.28555e-01,3.09674e-01,1.00224e+00,9.67000e-02,1.87146e-01,6.04780e-02,-1.64478e+00,-7.75758e-01,-4.89342e-01,-6.50617e-02,1.22684e-01,-5.54120e+00,8.29722e-01,3.06968e-02,7.51917e-02,-2.26524e-01,5.29505e-01,-1.56147e+00,-7.29309e-01,
-5.02407e-02,-1.43506e-02,1.41048e-02,-2.17974e-02,3.63562e-03,-3.19145e-02,2.58678e-02,-4.54799e-02,-4.24359e-02,-6.41398e-03,3.73483e-02,-3.67785e-03,-5.91504e-03,8.08727e-03,-8.96595e-03,1.86887e-02,1.15101e-02,2.22726e-02,-3.23889e-02,1.61586e-02,3.13771e-02,-7.50097e-03,-2.70635e-02,-7.24253e-03,-3.91852e-02,-4.33445e-02,-1.10900e-02,-2.14385e-02,-1.43816e-02,-4.04360e-02,-1.69292e-02,1.24256e-02,-2.86977e-02,5.91829e-03,-6.12977e-03,-4.41538e-02,-9.92080e-03,2.72484e-02,1.90376e-02,-2.03848e-03,3.64643e-02,3.38508e-02,-3.81080e-02,1.20996e-02,-8.78829e-03,3.57228e-02,-2.67390e-02,2.23036e-02,-5.57748e-02,-4.38874e-02,
-1.95047e-01,-2.69262e+00,-1.56914e+00,1.27210e-01,-3.05710e+00,-8.82436e-02,1.82736e-01,-1.99135e-01,-7.40774e-01,1.18359e+00,-3.26474e-02,8.07461e-04,3.66929e-01,-2.30623e-02,-6.69119e+00,-2.12956e+00,-1.23350e+00,1.82963e+00,-1.04084e+00,1.46881e+00,1.25628e+00,3.39472e-01,-7.86974e-03,-1.14503e+00,-8.39555e-01,-1.71439e-01,7.64714e-02,-1.83648e+00,2.64764e+00,2.01310e-01,1.14692e+00,-1.07243e+00,1.05890e+00,3.42756e-01,-1.53625e-02,-1.36203e-01,-6.78934e-01,1.41813e+00,5.54574e-01,1.62432e+00,5.67741e-02,-1.99291e-02,-8.19009e-01,-2.31284e-01,-5.02067e-01,-4.71119e-02,6.94207e-01,-3.54789e-01,-2.80069e-01,1.71174e-01,
-1.14109e-02,5.69695e-03,-4.40477e-02,9.93089e-03,-3.24158e-02,-3.76029e-02,-4.36762e-03,-5.45835e-03,-5.26568e-02,-1.59000e-02,-3.97703e-02,-5.33986e-03,-5.32684e-02,-1.55610e-02,-2.54716e-03,2.33795e-02,-1.39372e-02,7.18343e-04,-4.19213e-02,-4.47705e-02,-6.14157e-03,2.17875e-02,9.41159e-03,-1.93525e-02,5.89256e-03,2.32600e-02,3.35982e-02,-2.81895e-02,-1.67888e-02,-4.24966e-02,3.14140e-02,-2.04670e-02,-2.34088e-02,-2.16582e-02,-3.55828e-02,1.81641e-02,6.63253e-04,-4.95984e-03,-5.38914e-02,-2.84602e-02,9.94650e-03,-4.44306e-02,-3.10858e-04,-1.95021e-02,-4.19215e-02,-4.86141e-02,3.73499e-02,-3.93065e-02,2.32280e-02,2.79448e-02,
8.67318e-02,1.47103e-01,-3.67666e-01,1.06702e+00,-1.86725e-01,-2.38433e-01,-2.37185e-01,-5.41568e-01,-2.09086e-03,-3.52235e-01,2.78867e-01,-2.07373e-02,-3.18872e-01,4.52544e-02,-3.49159e-01,-1.13678e-01,-2.35583e-01,6.76240e-02,-1.49890e+00,-1.05071e+00,1.50364e+00,2.09295e-01,1.00987e+00,-3.79014e-01,4.59897e-02,6.72326e-01,-4.60015e-01,4.77697e-01,-5.56020e-01,7.54837e-01,6.15604e-01,-9.64077e-01,-3.98337e-01,5.63337e-01,-9.26176e-02,1.01636e-01,1.43091e-01,-9.51409e-02,1.29053e-01,1.09450e-01,1.22929e-01,1.67891e-01,-4.58783e-01,-2.48363e-01,1.26944e-01,-2.80881e-01,3.22355e-01,2.76835e-01,-5.19973e-01,5.29283e-02,
2.92135e-02,-1.73095e-01,6.32224e-01,9.52866e-01,1.29884e+00,-4.07452e-01,-3.62400e-02,1.64744e-01,-7.54393e-01,9.16995e-01,-2.81612e+00,-3.35400e-02,1.12009e+00,1.23229e-02,-2.14647e+00,-5.70549e-01,-2.87372e-01,-2.14757e+00,-6.31579e-01,-1.06058e+00,8.42511e-01,-7.49312e-02,-2.14839e+00,-1.25450e+00,4.05102e-01,1.24146e+00,-7.87622e-01,8.19040e-01,-2.83544e+00,8.38973e-01,7.00618e-01,2.27822e+00,-1.53935e+00,-1.30625e-01,9.11135e-01,5.44669e-02,-3.70429e-02,-7.12906e-01,4.72635e-01,-2.68851e+00,-1.26876e+00,1.82229e+00,7.18764e-01,5.19794e-01,5.67958e-01,1.69257e+00,4.84671e-01,7.46822e-01,-1.21349e+00,2.62722e-02,
1.39964e-01,-1.14187e+00,2.10388e+00,6.09624e-01,1.68448e+00,-3.57079e+00,-1.29053e+00,-4.62402e-02,-1.16742e-01,1.61398e+00,-2.18788e+00,-3.39283e-02,7.82957e-01,9.11085e-04,-7.39467e-01,-2.44484e-01,1.71776e+00,-1.47606e+00,-6.90935e-01,9.35844e-01,1.06205e+00,-9.26307e-01,-2.38783e+00,-2.09416e+00,-2.17967e+00,1.55295e+00,-3.51601e-01,1.17524e+00,-3.31277e+00,1.62942e+00,1.45760e+00,1.59600e+00,-2.03034e+00,3.63776e-01,-7.55655e-01,1.89037e-01,1.63072e-01,-8.27824e-01,3.80083e-01,-1.63435e+00,-9.87230e-01,-4.60415e+00,1.58218e+00,1.26220e+00,-2.07095e-01,-1.44311e+00,-3.78183e-01,8.94203e-01,-2.87320e+00,-5.93170e-01,
7.48083e-02,1.94303e-01,-4.73727e-01,1.08704e-02,-7.39343e-02,-2.80805e+00,7.77968e-01,-4.15864e-01,4.87346e-02,1.15095e+00,-6.35668e-01,-3.84180e-02,-1.26498e+00,-1.11355e-02,-8.82662e-01,-1.44065e+00,4.88917e-02,8.86827e-01,5.18065e-01,8.05016e-01,-8.15942e-01,-1.35327e+00,-2.68228e+00,1.36270e-01,1.14104e+00,-1.96037e-01,-4.57105e+00,-4.29141e-01,-5.62203e+00,-1.88738e+00,-1.22715e+00,-2.95537e+00,-1.68127e+00,8.07555e-01,-1.74238e+00,1.46148e-01,5.97567e-01,-1.85319e+00,1.09674e-01,5.14455e-02,6.43203e-01,-1.49863e+00,4.97918e-01,-2.07121e-01,1.05879e-01,-1.51225e+00,3.32618e-01,9.74485e-01,-2.34362e+00,-4.23825e-01,
-4.23642e-02,-3.19096e-03,-5.19159e-02,-3.45031e-02,-4.37472e-02,-2.85253e-02,-2.08755e-02,-7.22563e-03,-4.76704e-02,1.06837e-03,2.61045e-02,-3.95119e-02,1.09325e-02,-2.68940e-02,-5.22941e-02,1.48672e-02,2.30034e-03,-6.07676e-03,-7.78588e-03,8.75457e-03,-4.03148e-02,-4.60245e-02,-2.82611e-02,4.89091e-03,-4.92778e-02,-5.63045e-02,-8.12285e-03,-8.38049e-03,-3.53207e-02,3.02341e-02,-1.58798e-03,3.58274e-02,-5.06701e-02,-5.05029e-02,-4.14669e-02,3.72839e-02,-2.74109e-02,-3.10920e-02,-4.48644e-02,-3.65144e-02,-1.51675e-02,1.55048e-02,-3.29221e-03,-2.67933e-02,-2.00408e-02,-2.07951e-02,-3.91454e-02,2.70338e-02,9.75511e-03,-1.29084e-02,
5.10420e-01,-1.29049e-01,-2.43516e-01,8.48845e-01,9.10850e-01,-1.49076e+00,-4.39313e-03,-7.09313e-01,1.24747e-01,-2.29332e-01,-4.80464e-01,2.57436e-02,-5.76901e-01,1.87856e-02,-2.93010e+00,-2.89738e-01,-6.66571e-02,-8.45150e-01,8.05828e-01,7.55820e-01,1.38543e-01,3.92031e-01,5.45612e-01,5.94015e-01,-8.28907e-02,5.39902e-01,-2.30220e-01,-4.30559e-01,1.30864e+00,1.55822e-01,-7.09072e-02,3.32219e+00,-8.29999e-02,-6.39424e-01,1.09685e+00,5.04704e-01,4.01496e-01,-2.32081e+00,-3.80174e-01,-2.41578e-02,1.40327e-01,6.73764e-01,-3.43637e-01,-6.86916e-02,6.09052e-01,-4.56483e-01,-4.17404e-01,9.43151e-01,3.63214e-01,1.65292e-01,
-2.66560e-01,-1.45964e-01,5.50722e-02,2.13676e-01,-3.46941e-01,-7.42556e-01,3.12670e-01,5.01932e-02,2.34812e-01,-2.94148e-01,-9.57982e-01,4.19137e-02,-2.82800e-01,2.75246e-02,4.37126e-01,1.57336e-01,-3.28436e-01,-8.11778e-03,4.63019e-02,-1.99153e-01,-5.06447e-02,-1.24855e+00,-7.50879e-01,-3.31398e-01,-1.83439e-01,-6.20049e-01,-8.41471e-01,8.91087e-02,-4.07882e-01,-1.34326e-01,1.98657e-01,-1.15874e+00,3.24826e-01,-1.57373e-01,1.36475e-02,-2.72062e-01,-2.03037e-01,9.90421e-02,2.86541e-01,4.13879e-01,2.99576e-01,-2.75062e-03,-7.59832e-02,2.40168e-01,8.98816e-02,1.87798e-01,6.88060e-01,-6.78095e-02,3.41242e-01,-1.80573e-01,
-2.94899e-02,7.97404e-03,-3.70437e-02,-5.54098e-02,-3.88578e-02,-8.03916e-03,-4.09177e-02,-8.17713e-03,1.79486e-02,-1.46861e-02,-2.13340e-02,3.92389e-02,2.69668e-02,-2.03643e-02,2.06454e-03,3.56824e-02,-3.95011e-02,-3.83539e-02,-3.96255e-03,-8.93761e-03,-2.70669e-02,-2.27153e-02,-1.33690e-02,-1.42748e-02,-4.42946e-02,2.83561e-02,-7.17115e-03,2.26478e-03,4.04299e-02,2.30763e-02,-3.51248e-03,-1.30470e-02,1.84119e-02,-2.74114e-02,-2.45632e-02,-3.92074e-02,8.12261e-03,-1.29306e-02,-1.07718e-02,-2.57147e-02,1.80360e-02,-3.26173e-02,1.58755e-02,2.87314e-02,1.01662e-02,3.12062e-03,-2.24287e-02,-4.36386e-02,-7.00646e-03,-3.02105e-02,
-3.51166e-01,8.12244e-01,-2.47996e-02,1.60989e-01,1.91435e-01,-2.84290e-01,-1.79755e-01,-1.00721e-01,-6.45600e-01,3.39421e-01,-7.31165e-02,-4.21302e-02,6.97344e-01,-7.68562e-03,-9.54541e-01,-8.87908e-01,6.09677e-02,-7.68533e-02,1.02803e+00,-4.33386e-01,1.74740e-01,-3.58272e+00,-8.98721e-01,1.54578e+00,-3.78020e-01,9.33237e-01,-9.76174e-01,1.71572e-01,-9.97624e-01,6.48840e-02,-5.83512e-02,-9.46375e-01,4.76625e-01,8.52189e-02,-2.87139e-01,-2.78574e-01,6.73983e-03,5.44434e-01,5.21218e-02,-6.04996e-01,5.68020e-01,-2.18770e-01,-1.37069e-01,-5.68416e-02,-7.44557e-01,4.48610e-01,9.29602e-01,-2.50859e-01,1.43963e-01,1.93911e-01,
1.71623e-02,-2.92876e-02,1.17140e-02,-3.92261e-02,-2.52553e-03,-2.80323e-02,-3.59091e-02,-3.80672e-02,-1.18349e-02,-3.82865e-02,-2.12672e-02,2.67163e-03,-2.92673e-02,-2.48387e-02,1.45244e-02,-4.48118e-03,-4.56272e-02,-1.71243e-02,-2.54013e-02,-1.14762e-02,-3.61462e-02,-5.41145e-02,-2.44398e-02,4.80363e-02,8.06629e-03,-2.94911e-02,3.76014e-02,-5.28650e-02,-1.94833e-02,2.20186e-02,4.46203e-02,3.01155e-02,4.35837e-03,4.84436e-02,8.50288e-03,-3.09313e-02,-5.16921e-02,1.13179e-02,-2.98205e-02,1.28213e-03,3.63053e-02,4.15141e-02,6.69443e-03,3.50094e-02,5.90866e-03,-4.89316e-02,-3.35815e-02,-3.27168e-02,-3.46104e-02,9.89540e-03,
-1.33633e-02,-4.86222e-01,8.23215e-01,-1.24137e-01,7.56576e-01,1.08271e+00,-1.92185e-01,3.62819e-01,3.66936e-02,-2.04329e-01,-1.18052e+00,-9.55197e-03,4.85037e-01,2.97528e-02,-2.36774e+00,-6.54838e-01,-4.26221e-02,-2.64798e+00,9.59589e-02,-3.09025e-01,4.97737e-01,3.37575e+00,-7.60515e-01,-2.51846e+00,-1.74535e+00,-1.57402e-01,-1.34032e+00,4.79149e-01,-2.99358e+00,9.98398e-01,7.43764e-01,3.55546e-01,-1.56270e+00,-1.26138e+00,4.13314e-01,-2.68435e-02,-3.29370e-01,6.95994e-02,1.59043e-01,-1.05992e+00,-1.05564e+00,8.13371e-02,4.05338e-01,-1.57035e-01,5.58046e-01,1.33100e-01,2.18926e-01,-1.36219e-01,-2.44665e-01,-3.23848e-02,
1.43168e-01,2.41075e-01,-3.97118e-01,-1.60635e+00,8.88118e-01,-3.42223e+00,9.45976e-01,-2.11495e+00,-7.89704e-02,9.18599e-01,-5.40805e-01,3.99470e-02,-1.08297e+00,-3.58156e-02,-1.52020e+00,-1.98305e-01,-7.56798e-01,-1.36527e+00,1.08669e+00,1.27466e+00,-8.50947e-02,1.29348e+00,-1.87108e+00,-9.76369e-01,1.22925e+00,1.63591e-01,1.36574e+00,-6.11208e-01,1.10824e+00,-3.37310e-01,4.54849e-01,-2.53319e-02,-3.43284e+00,1.50564e+00,-2.63904e+00,1.25974e-01,4.74666e-01,-1.17129e+00,4.89212e-01,1.93243e+00,4.75038e-01,-1.89783e+00,9.72845e-01,-1.65100e+00,-2.39713e+00,-1.38928e+00,-1.28635e+00,-3.59023e-01,-2.12063e+00,-1.85917e+00,
8.41987e-04,-4.00268e-02,-2.73759e-02,-4.02766e-02,-5.50588e-02,-2.74066e-02,2.90464e-02,1.55870e-02,-5.06713e-02,3.35436e-03,-3.14129e-02,-9.50733e-03,-3.40244e-02,1.65695e-02,-5.88931e-04,1.98137e-02,-4.31482e-02,-5.51403e-02,2.37147e-02,6.15868e-03,2.39651e-02,1.33353e-02,1.77254e-02,1.34812e-02,-1.42708e-02,1.75852e-02,-5.07772e-02,2.32945e-02,-9.35239e-03,-8.13384e-03,1.95927e-02,-1.01326e-02,-4.09090e-02,-1.50930e-02,-1.78824e-03,-1.79652e-02,-4.17082e-02,-5.00560e-02,3.29482e-03,-3.66509e-02,-4.70853e-02,2.72220e-03,2.88407e-02,-1.80847e-03,2.90276e-02,-1.92731e-02,3.13787e-03,4.50268e-03,1.13566e-02,1.14300e-02,
-4.01225e-02,6.41071e-01,1.79393e-01,2.71398e-01,1.68766e+00,1.02438e-01,-2.05999e-02,-3.63639e-02,7.59887e-01,-4.38038e-01,6.53003e-01,-1.93453e-02,1.38192e+00,-9.67114e-03,1.77051e+00,2.17746e-02,-6.41211e-01,-1.33046e-01,-1.72285e-01,-6.27842e-01,6.80993e-01,8.10881e-03,-1.66091e+00,2.50067e+00,3.78478e-01,2.09866e+00,-2.29552e+00,1.60877e-01,2.71076e+00,8.14980e-01,9.21504e-01,1.60642e+00,-3.52779e-03,5.24757e-01,-7.33667e-01,-3.50945e-02,-5.21618e-01,-6.63836e-01,4.85016e-01,7.78594e-01,-9.11255e-01,-3.78334e-02,-4.64895e-01,-8.88431e-02,7.17551e-01,-4.03442e-02,-9.19774e-01,-4.58910e-01,4.39818e-01,-4.30285e-01,
-3.36058e-01,-5.56775e-03,1.50804e-02,1.76541e-01,5.59059e-02,5.88629e-02,-1.76498e-01,-5.64904e-03,2.93290e-01,-1.74603e-01,-2.32589e-01,-7.05264e-03,-6.71915e-01,2.68108e-02,3.77726e-01,5.98887e-01,1.61779e-01,-3.47569e-01,4.59351e-01,2.75340e-01,-3.10159e-01,-1.23147e-01,4.78729e-01,8.75984e-02,-9.55356e-02,-2.49430e-01,-6.29213e-01,4.21499e-01,1.63452e-01,-1.80182e-01,-1.65138e-01,-1.83594e-02,-4.43864e-01,1.93991e-01,4.69543e-02,-3.39495e-01,-1.50645e-02,2.70685e-01,-1.65486e-01,3.91733e-01,-6.19873e-01,6.88971e-02,-4.97651e-01,2.47271e-01,-2.34783e-02,1.91965e+00,2.44451e-01,2.49107e-01,8.74747e-01,1.92570e-01,
-3.55342e-02,1.20717e+00,2.42928e-02,9.32300e-02,-5.90081e-01,-3.34673e-01,1.74272e-01,-4.92559e-01,7.83630e-02,-7.29840e-01,2.12160e-01,2.86008e-02,-8.01229e-01,-2.52463e-02,-1.97578e-01,-2.78038e-01,-1.43279e+00,-2.91778e-01,7.01304e-01,-1.06239e-01,-6.99094e-01,7.25519e-01,-6.28120e-01,1.44159e+00,-1.56996e-04,6.23503e-01,1.89077e+00,1.34152e-01,-7.93267e-01,-2.75068e-01,-5.83459e-01,-2.08826e-01,1.29422e-01,-3.50771e-03,-1.03120e-01,4.43679e-02,1.39556e-01,-4.91636e-01,3.41812e-01,4.28264e-01,1.23467e-01,-1.41789e-01,9.60932e-02,-5.33893e-01,1.79240e-01,9.56918e-01,4.69211e-02,2.48592e-01,1.21512e+00,4.55003e-01,
-4.42641e+00,3.77877e-01,-2.48944e-02,-4.59752e-01,-3.78836e-01,6.26236e-01,3.78247e-02,1.75447e-03,-1.06632e+00,2.15604e-01,3.79187e-01,-4.10791e-02,9.05838e-02,-4.57490e-02,-3.89669e-01,-6.62130e-02,2.04848e-01,1.07959e-02,7.48407e-01,7.02242e-02,2.43990e-01,-5.91794e-01,-1.20603e-01,1.40319e+00,8.42201e-02,7.71941e-01,-2.16160e-01,2.88298e-02,-1.28402e+00,3.40457e-01,7.93582e-02,-5.95201e-01,3.54964e-01,-2.34077e-01,-2.24943e-02,-4.55964e+00,-4.98117e-02,1.99369e-02,2.43974e-01,-5.21765e-03,-8.60636e-02,-4.85057e-01,-3.01506e-01,1.96400e-01,3.06599e-01,6.58519e-01,8.37416e-01,-1.17323e-01,2.98579e-01,4.92302e-01,
-2.91491e-01,4.47342e-02,3.36742e-01,-1.90083e-01,-1.53938e+00,2.68424e+00,5.79492e-01,1.07706e+00,-9.37706e-02,-1.18623e+00,2.88074e-02,4.52840e-03,-3.40520e-01,2.77083e-02,-2.23555e+00,9.55516e-01,-9.08037e-01,3.43528e-02,-2.97344e+00,-8.29298e-01,-1.93686e-01,-1.66624e-01,1.38324e+00,6.63371e-01,1.19011e+00,-3.31939e+00,-8.80330e-01,-8.92287e-02,-2.58214e-02,-8.63006e-01,-1.88976e+00,-2.12013e+00,-1.85699e-02,1.57951e-01,7.46999e-01,-2.73630e-01,-3.19515e+00,3.09701e-01,4.07059e-01,-5.72341e-02,1.21208e+00,2.48486e+00,-9.16807e-01,-8.78998e-01,-1.52677e+00,3.48956e+00,-6.12883e-01,-1.47379e+00,1.39250e+00,-1.92482e+00,
-3.21910e-02,1.18466e-02,-3.93691e-02,-4.45719e-02,2.25019e-02,-2.80773e-02,-1.54751e-02,-5.53676e-02,-1.86264e-02,3.15551e-02,1.17319e-02,-2.67191e-02,1.65313e-02,-4.23112e-02,-3.47339e-02,-2.38208e-02,-3.23053e-02,2.69493e-02,-2.05261e-02,-1.30628e-02,-3.73244e-02,2.69884e-02,-4.25069e-02,-5.07460e-02,-4.23479e-02,1.60521e-03,-1.72358e-02,-3.35960e-02,2.92517e-02,-4.66199e-02,-3.75023e-03,3.11343e-03,7.43119e-03,-3.34784e-02,1.54861e-02,5.93979e-03,1.79368e-02,3.37122e-02,-3.42867e-02,-3.76306e-03,4.54806e-03,1.57224e-03,-1.41653e-02,-2.11211e-02,5.67589e-02,5.33225e-02,-2.97923e-03,-1.64048e-02,-5.21675e-02,-1.92966e-02,
-5.00550e-01,1.10762e+00,5.56148e-01,1.05531e+00,-2.31486e-01,-1.66932e+00,2.14122e-01,-5.43559e-01,8.11489e-01,-3.51592e-01,-2.00518e-01,-2.66655e-02,3.26696e-01,-2.48921e-02,1.82359e+00,1.41577e-01,2.34903e-01,7.58196e-01,-1.76364e+00,1.71536e-01,-4.70281e-01,3.72123e-01,6.57508e-02,1.25635e+00,-1.10248e+00,-7.41429e-02,-1.79756e+00,6.12885e-01,-4.13531e-01,1.06345e+00,-2.53865e-02,-4.01673e-01,6.96919e-01,6.17327e-01,2.83209e-01,-4.98230e-01,9.27899e-02,6.99500e-01,9.97632e-02,-2.13704e-01,-6.12605e-01,4.07427e-01,-3.26594e-01,3.16709e-02,-2.02899e-01,1.88177e-01,-1.12924e+00,7.31272e-01,-1.24836e+00,-9.18516e-02,
2.46079e-02,-1.14814e-02,-1.83151e-02,7.24279e-03,4.31303e-03,3.10004e-02,-1.83200e-02,-1.69390e-03,6.33827e-04,-2.67717e-02,8.05181e-04,-5.13503e-02,-1.46057e-02,2.19737e-02,-3.62725e-02,-3.92076e-02,2.74121e-03,4.32460e-04,1.12940e-02,-1.93353e-02,-6.51658e-03,-1.32533e-02,-4.20185e-02,-4.07558e-02,-1.01635e-03,1.10170e-02,7.30120e-04,-5.35458e-02,-4.36141e-02,2.60725e-02,-1.86120e-02,9.18758e-03,-4.56448e-03,-3.75718e-02,4.23671e-02,-4.87106e-02,1.76009e-02,3.24900e-02,-3.55175e-02,-4.54370e-02,7.39504e-03,-5.26668e-02,-3.37502e-02,3.49334e-03,-2.48117e-02,1.43788e-02,2.30516e-02,-2.83414e-02,1.97933e-02,1.39672e-02,
-1.53310e-01,-3.48197e-01,1.41493e+00,1.70823e-01,-1.44077e+00,-1.76412e+00,1.02945e-01,6.45826e-01,-2.25903e-01,-8.94737e-01,-9.10675e-01,-3.73347e-03,5.37242e-01,-2.56520e-02,-1.97886e+00,-1.73000e+00,2.73920e-01,2.77447e-01,-1.11947e+00,-1.77656e+00,-8.61133e-01,-8.91489e-02,-1.53585e+00,-1.90629e+00,4.49713e-01,-6.49015e-01,3.32858e-01,2.11374e-02,-5.38451e-01,-5.76366e-01,-6.85744e-01,-5.69257e-01,7.54407e-01,-6.10707e-01,-3.73025e-01,-1.58023e-01,-1.30886e+00,3.79853e-01,-6.42497e-01,6.75429e-01,-1.14357e-02,1.37050e-01,-1.66835e-01,5.35651e-01,-7.53203e-01,-3.94433e+00,-1.39325e-01,7.73911e-02,-6.42532e-01,-6.78598e-02,
-1.19097e-01,-1.06654e+00,-2.96275e-01,-9.58090e-02,-8.39479e-01,-3.71396e-01,-5.92901e-01,-9.01719e-02,3.46080e-02,7.95699e-01,-1.39189e+00,-2.03228e-02,5.33866e-01,-2.12049e-02,-1.62709e+00,-5.82825e-01,8.00378e-01,-1.72567e-01,-1.46407e+00,-8.74020e-01,7.13398e-01,-7.03172e-01,-2.19880e-02,-2.55088e-01,3.42946e-01,-5.18741e-01,4.85969e-01,6.96248e-01,-6.05867e-01,9.78254e-01,-9.30018e-01,3.20080e-02,-4.01322e-01,6.76116e-01,5.91737e-02,-1.05356e-01,-7.20386e-01,4.98415e-01,-2.78121e-02,-2.51184e+00,-3.42822e-01,-1.31127e-01,-1.07852e-01,2.44164e-01,-7.67517e-02,2.27266e+00,2.36393e-01,-1.97296e-01,-1.15118e+00,7.19145e-02,
2.69091e-01,3.95362e-01,-9.41844e-03,2.49905e-01,-6.05979e-02,-3.68983e-01,-1.05546e+00,-8.50701e-01,8.56168e-03,6.60194e-01,-3.92493e-01,4.71759e-02,-5.52659e-01,-2.24094e-02,-1.91971e+00,-7.88007e-01,4.47050e-01,4.97041e-01,-7.39726e-01,3.13358e-01,6.24947e-01,-1.08133e+00,-3.99924e-01,-3.45480e+00,4.38122e-01,2.33092e-01,-2.27970e-01,8.46231e-02,-6.16687e-01,-3.34827e-01,-1.10516e+00,-1.34958e+00,-9.30025e-02,1.08672e-01,-2.83072e-01,2.81775e-01,-4.94429e-01,-1.53697e-01,1.29939e-01,1.65569e-01,-3.95337e-01,-7.20852e+00,-7.10345e-02,1.48225e-01,8.52294e-01,-2.84314e+00,-7.37935e-02,-1.89297e-01,-2.57210e+00,-4.58612e-01,
2.53996e-01,-1.74939e+00,3.08283e-01,-7.71151e-01,-2.83004e+00,-2.06131e-02,-5.62805e-01,-1.91463e+00,3.02373e-01,-5.54895e-01,2.28706e-02,9.79708e-03,-9.25948e-01,-1.46228e-02,1.36349e+00,6.68222e-02,3.96998e-01,1.21236e+00,5.45662e-04,2.64431e-01,-4.17564e-01,7.77058e-01,-8.82530e-01,1.69320e+00,-3.87630e-01,5.78148e-01,-8.21456e-01,-7.25433e-01,-5.72938e-01,1.55946e-01,-3.50039e-01,1.34058e+00,-3.39029e-01,-1.22389e+00,-1.22283e-01,2.88077e-01,1.56801e-01,1.03327e+00,2.16150e-01,-2.39150e+00,-2.65218e-01,1.26346e+00,-2.15578e-02,-3.02457e-01,9.48739e-02,-1.75399e-01,-2.36862e-01,-6.53519e-01,5.83202e-02,-6.61406e-03,
1.22608e-02,-3.74311e-02,2.63927e-02,-3.11461e-02,-3.75280e-02,-2.53054e-03,-2.04811e-02,-3.37290e-02,-4.97310e-02,8.93900e-03,-2.25030e-02,2.93830e-02,2.05499e-02,-2.04193e-03,2.85998e-02,-3.40015e-02,-3.69954e-02,2.25195e-02,-1.95557e-03,-2.65750e-02,-1.88133e-02,-2.33700e-02,-7.00490e-04,2.62899e-02,-1.45742e-02,-2.69168e-02,-4.35323e-02,1.78991e-02,-5.04796e-02,-1.31982e-03,-1.30112e-02,-6.34422e-03,-3.47317e-02,-2.89852e-02,-4.66512e-02,-2.03299e-02,1.41933e-02,2.95076e-02,-1.36582e-02,-3.72917e-03,-5.15891e-02,-1.87089e-02,1.84073e-02,-9.29987e-03,1.00545e-03,-2.07288e-02,-4.50622e-02,-3.65387e-02,2.81627e-02,2.42385e-02,
1.09673e-02,8.31806e-01,-1.45918e+00,-1.29446e+00,1.55144e-01,-2.31892e+00,7.52490e-01,-1.10164e+00,-1.04789e-01,-2.83151e-01,1.13878e+00,-3.21233e-04,-1.60921e+00,4.98495e-02,1.27231e+00,8.25396e-02,-1.66027e+00,1.83457e+00,8.34774e-01,1.90317e+00,-1.43610e-01,4.52674e-01,-5.92969e-01,2.92243e+00,1.02267e+00,2.24476e-01,1.19961e+00,-1.74841e+00,3.39380e+00,-1.58087e+00,-8.78823e-01,-2.38021e+00,7.92492e-01,1.77584e+00,-1.69663e+00,8.04054e-03,9.35959e-01,-1.56045e+00,-3.33938e-01,3.10446e+00,6.38616e-01,-2.02897e-01,-9.74203e-01,-1.09317e+00,-3.43589e-01,1.03929e+00,3.88686e-01,-5.88856e-01,8.62051e-01,2.74329e-01,
1.13258e-01,2.52616e-01,1.03243e+00,8.96000e-01,-4.98732e-01,-2.98487e+00,-4.13937e-01,1.26981e+00,1.40030e-01,4.90051e-02,-9.18393e-01,3.49533e-02,-2.06137e-01,1.05509e-02,1.29760e+00,5.48517e-01,-4.58917e+00,-2.08520e+00,-1.56127e+00,-1.96876e+00,-5.34175e-01,-6.46852e-01,1.31869e+00,-1.37979e+00,-2.25905e+00,-1.54071e+00,-3.26459e+00,9.12680e-02,-1.86616e+00,-1.58055e+00,2.05478e+00,-7.30602e-01,6.50407e-02,-1.93649e+00,1.38478e+00,4.03800e-02,-4.87829e+00,1.11535e+00,-1.56059e-01,-3.07929e+00,-5.24502e-01,-8.55564e-01,-1.12798e+00,7.69375e-01,-1.58099e-01,1.47096e+00,3.99773e-01,-4.22607e-02,-1.16941e-02,8.19128e-01,
-8.92446e+00,-1.71777e+00,-6.97272e-02,-6.19585e+00,1.33322e-03,-2.32472e+00,1.86653e+00,-3.26676e-01,-5.33146e+00,9.93357e-01,-5.64940e-01,-2.84756e-02,-3.21662e+00,3.65260e-02,1.44909e-01,-6.44682e+00,-5.01818e-01,1.01151e+00,-5.99471e-02,-4.44097e-01,-2.48031e+00,2.95507e-01,-3.51085e+00,-4.39718e-01,7.81621e-01,-5.76939e+00,-7.80180e-02,-3.32496e+00,-4.89016e+00,-1.97204e-01,1.42842e+00,-9.84217e-02,-3.24107e+00,-6.15385e-01,7.57154e-01,-8.74927e+00,-1.17261e+00,5.48408e-02,8.83634e-01,-4.54170e+00,-2.46477e+00,9.37993e-02,9.72248e-01,-9.96344e-01,-2.34203e+00,1.85591e-01,2.63686e-01,1.55844e+00,-3.36906e+00,-1.22080e-01,
-4.17917e-02,-2.63955e-02,-4.35617e-02,-6.36129e-03,1.04014e-02,-5.46468e-02,-2.22163e-02,-4.63503e-02,-7.75458e-03,-1.68618e-02,-5.22711e-02,-1.68772e-02,-1.39540e-02,1.35515e-02,-2.91249e-02,2.13614e-02,-2.70684e-02,1.89993e-04,-3.31611e-02,-2.79024e-02,3.88533e-02,7.09101e-03,4.42897e-03,4.70128e-02,5.04046e-02,-3.01823e-02,-5.03941e-02,2.01315e-02,2.12349e-02,-1.72165e-03,-1.92954e-02,2.34219e-02,2.19321e-02,6.15850e-03,-2.41077e-02,1.12522e-02,-1.53077e-02,-3.53957e-02,-4.51497e-02,-4.78130e-02,1.71060e-02,-4.88634e-02,3.37422e-02,-3.33397e-02,-4.09118e-02,-2.03202e-02,-5.05706e-02,6.57687e-03,-1.83940e-02,2.81460e-02,
-3.93688e-02,2.32437e-02,-2.48979e-02,-4.80716e-02,-4.81756e-03,-3.82492e-02,2.30861e-03,2.60842e-02,-4.91072e-02,-3.85693e-02,-7.35368e-03,-1.45603e-02,-5.81536e-02,3.23919e-02,-4.62232e-02,6.38265e-03,-1.51643e-02,-3.51194e-02,-6.06140e-03,-1.99830e-02,5.63258e-03,2.73682e-03,-1.07489e-02,1.52778e-03,4.06298e-03,4.61463e-03,-4.13526e-03,-5.79247e-02,-2.68364e-02,-1.60508e-03,-2.73174e-02,-3.81740e-02,1.11618e-02,9.37715e-03,2.43893e-02,-1.55845e-02,-4.05196e-02,3.98826e-03,-4.42074e-03,-2.13727e-02,-1.48701e-02,4.77200e-02,-4.51800e-02,5.09397e-02,-3.69574e-03,3.65066e-02,-3.59088e-02,-9.96913e-03,8.63754e-03,-9.80987e-03,
-3.04109e-01,
-8.03250e-01,
7.90130e-01,
-9.27326e-01,
-1.42435e+00,
-3.96676e-02,
-1.54906e-02,
-2.57070e-01,
-6.35989e-01,
2.58478e-01,
-1.14880e+00,
8.02705e-01,
-3.06186e-01,
-1.35614e+00,
2.31010e-01,
-3.56317e-01,
-2.56099e-02,
-1.55302e+00,
-1.65258e-02,
3.72340e-02,
1.20403e+00,
